le_net5/conv2d/kernel:0
(5, 5, 3, 6)
[[[[-0.28458363 -0.12634608  0.05489226 -0.03158911 -0.25621146
     0.26438543]
   [ 0.19705069  0.13785219  0.2965851   0.00118606  0.19896036
     0.25338054]
   [ 0.15268649  0.2950315   0.45789677  0.29798153  0.23835614
    -0.09031222]]

  [[-0.12914655 -0.09279804  0.15179951 -0.0974157  -0.3002133
     0.20766494]
   [ 0.08490416  0.067451    0.2615197  -0.08817746  0.25363612
     0.00115791]
   [ 0.11343423  0.33434394  0.5550213   0.4070212   0.1695999
     0.02766119]]

  [[-0.19213529 -0.2690292   0.3650806   0.02716815 -0.00550618
     0.02845012]
   [ 0.27038047  0.290762    0.18654619  0.13592927  0.22962928
    -0.21821083]
   [ 0.09419456  0.15845244  0.3936232   0.35153538  0.13881527
    -0.090709  ]]

  [[-0.17440692 -0.0347821   0.31760725 -0.21641809 -0.12691575
    -0.1118329 ]
   [ 0.20624658  0.04191725  0.335071    0.0737415   0.1966826
    -0.27217317]
   [ 0.29351294  0.2021966   0.5101594   0.41529456  0.25090903
    -0.2961169 ]]

  [[-0.33624426 -0.0198517   0.33320656 -0.03207531 -0.1101051
     0.17677721]
   [ 0.09415829  0.00514057  0.00709724 -0.07817912  0.19443814
    -0.14748593]
   [ 0.25968826  0.158475    0.38000262  0.3635301   0.25168183
    -0.00830495]]]


 [[[-0.22314888 -0.3283889   0.16388723 -0.20110089 -0.3430605
     0.0615458 ]
   [ 0.17893988 -0.09283353 -0.07914932  0.03271507  0.11899088
     0.2978957 ]
   [ 0.11634862  0.07376011  0.45050058  0.20460899  0.09044656
     0.1671829 ]]

  [[-0.09794433 -0.22389902  0.17476013 -0.02408405 -0.30274647
     0.31195453]
   [ 0.2215154  -0.0425347   0.16139089  0.02855926 -0.00601416
     0.2933448 ]
   [ 0.07665705  0.2548209   0.47708505  0.1844021   0.32458124
     0.12099147]]

  [[-0.3061039  -0.36081257  0.11543152 -0.18038458 -0.21955799
    -0.14467427]
   [ 0.28148913 -0.12044498 -0.09265862 -0.03109433  0.07759092
    -0.08617646]
   [ 0.27674386  0.26339635  0.31771055  0.24431047  0.17742528
    -0.16485415]]

  [[-0.3200604  -0.29568094  0.05642421  0.01635256 -0.09282894
    -0.08231329]
   [ 0.20186839  0.00697252 -0.03738537 -0.13336481  0.03079036
    -0.21226105]
   [ 0.15445215  0.22608955  0.21666133  0.3612912   0.18840036
    -0.35481396]]

  [[-0.3298364  -0.3162265  -0.06589141 -0.1876513  -0.13208759
     0.07916869]
   [ 0.10558528 -0.052297    0.06663871 -0.0912775   0.0818503
    -0.18728015]
   [ 0.24151202  0.2556947   0.37859195  0.4504991   0.2885665
    -0.31793475]]]


 [[[-0.14257611 -0.11219042  0.07020574 -0.1074002  -0.20100671
     0.31288078]
   [ 0.00705539  0.00530559 -0.09416239 -0.04428709  0.03702685
     0.3783759 ]
   [ 0.13447084  0.08855183  0.15112568  0.3732692   0.16787176
     0.2108326 ]]

  [[-0.4124391  -0.2744721  -0.12992857 -0.19508217 -0.06830174
     0.30126995]
   [ 0.20763299 -0.08041954 -0.3131567  -0.08604142  0.04995741
     0.11881666]
   [ 0.18038559  0.10990408  0.32517922  0.3164714   0.25125882
     0.05009949]]

  [[-0.2279639  -0.26903424 -0.05901005 -0.23763248 -0.26037693
    -0.08376393]
   [ 0.04411399  0.03830822 -0.22607227 -0.00637026  0.25634396
    -0.04196149]
   [ 0.2937389   0.30412108  0.17846681  0.29643393  0.2736654
    -0.20157376]]

  [[-0.2797604  -0.16899623  0.07448835 -0.30514395 -0.05549278
    -0.26264098]
   [ 0.12737082  0.01253672 -0.34895822 -0.09703056  0.13906159
    -0.30845317]
   [ 0.05941669  0.24612035  0.16606773  0.33345556  0.16187097
    -0.4258798 ]]

  [[-0.20779322 -0.31287724  0.00378504 -0.2920365  -0.16797258
    -0.23811512]
   [ 0.12408896 -0.00533894 -0.21787453 -0.07692515  0.19296892
    -0.12037154]
   [ 0.18458188  0.28094757  0.06121986  0.21809313  0.17827503
    -0.13086523]]]


 [[[-0.33403164 -0.3830855  -0.16745876 -0.3562546  -0.08959955
     0.2982938 ]
   [ 0.15958649 -0.171201   -0.3578451  -0.15352724  0.08410903
     0.17077129]
   [ 0.20810997  0.34961796 -0.03716994  0.1993983   0.09360579
     0.01598261]]

  [[-0.24787295 -0.21526444 -0.3717606  -0.30867195 -0.2927202
    -0.0409248 ]
   [ 0.03161599 -0.12454157 -0.44969246 -0.2908354   0.17051981
     0.20264632]
   [ 0.23717277  0.26427254 -0.02743262  0.08080342  0.10938753
     0.11571924]]

  [[-0.27933556 -0.42199755 -0.18097006 -0.14282994 -0.21786794
    -0.25110886]
   [ 0.1557933  -0.2654096  -0.36005282 -0.19121404 -0.03470178
    -0.03187922]
   [ 0.11370695  0.02452108 -0.13350126  0.19041555  0.34361327
    -0.21226865]]

  [[-0.24676119 -0.3139442  -0.24759266 -0.33244434 -0.11801613
    -0.28391504]
   [ 0.1761057   0.0129826  -0.41577274 -0.3154454   0.19928579
    -0.20447662]
   [ 0.11420051  0.21379514  0.0037863   0.20923746  0.15164572
    -0.2453031 ]]

  [[-0.15657318 -0.20557328 -0.28996524 -0.25178662 -0.2328696
    -0.16002741]
   [ 0.03155408 -0.1442499  -0.5690844  -0.07490786  0.18633772
    -0.06784034]
   [ 0.04303021  0.2753584   0.04904378  0.24216327  0.11559215
    -0.16603889]]]


 [[[-0.33639657 -0.38970193 -0.28753057 -0.23255557 -0.25705978
     0.12910706]
   [-0.04634989 -0.31721333 -0.48785278 -0.3167933  -0.06142832
     0.24566682]
   [ 0.20770372  0.26331872  0.05892336  0.13211325  0.0740907
     0.01223887]]

  [[-0.25737134 -0.5085071  -0.26309815 -0.17236651 -0.17009084
     0.00419352]
   [ 0.12187662 -0.10349301 -0.64776415 -0.45627582 -0.09799879
     0.21521515]
   [ 0.12057448  0.11444712 -0.0206972   0.04475221  0.30317786
    -0.15235002]]

  [[-0.17198725 -0.37269583 -0.43681094 -0.3041161  -0.06869379
    -0.06253155]
   [ 0.13957287 -0.3176204  -0.7552441  -0.41898876  0.13760448
    -0.05723153]
   [ 0.08693217  0.21434087 -0.22745936 -0.06180414  0.12164648
    -0.39902648]]

  [[-0.13948813 -0.45250583 -0.27233297 -0.18959524 -0.07509341
    -0.14748564]
   [ 0.1931778  -0.08664239 -0.60899705 -0.34564397 -0.07311687
    -0.18841806]
   [ 0.07316569  0.08485997 -0.0880473   0.08960813  0.32565597
    -0.26772666]]

  [[-0.18207951 -0.4175431  -0.29606536 -0.22222602 -0.12449922
    -0.09009188]
   [-0.01918647 -0.18474512 -0.5640405  -0.38065174  0.02516895
     0.1883348 ]
   [ 0.20168388  0.10379004 -0.17571759  0.25518298  0.29715264
    -0.26643214]]]]
le_net5/conv2d/bias:0
(6,)
[-0.11240391  0.03994006 -0.37696224 -0.30891857 -0.1612607   0.31725854]
le_net5/conv2d_1/kernel:0
(5, 5, 6, 16)
[[[[-2.39829034e-01 -1.32154554e-01 -1.44565061e-01 -2.77984798e-01
    -4.28971313e-02  1.81652303e-03 -2.77172267e-01 -1.13174178e-01
     6.15328550e-02 -1.89045683e-01 -2.01842874e-01 -3.12001836e-02
    -5.22199422e-02  6.44370019e-02 -5.42225353e-02 -1.63102612e-01]
   [-2.28215858e-01 -2.76537627e-01 -7.65718877e-01 -6.14621460e-01
     1.37323543e-01 -8.50519910e-02 -3.34327668e-01 -7.94447064e-02
    -1.60762981e-01 -8.32967088e-02 -5.31469703e-01 -1.39134318e-01
    -4.85058576e-01  2.78542727e-01 -1.15476809e-01  9.80598386e-03]
   [ 2.52118230e-01 -1.99824676e-01  1.46512151e-01 -1.48595721e-01
     2.54208833e-01 -1.15279909e-02  1.26028061e-01 -5.97833395e-02
    -5.40605523e-02 -3.37082028e-01 -3.09394687e-01 -1.77421987e-01
    -3.12500089e-01 -5.43678738e-02 -2.44231835e-01 -1.08661801e-01]
   [-1.39061198e-01 -2.51134545e-01 -3.31931949e-01 -4.51548219e-01
     3.06313168e-02  5.26323877e-02 -1.67587444e-01  7.25702802e-03
    -8.40180293e-02 -3.19626331e-01 -6.01979613e-01  7.37417340e-02
    -2.60646373e-01  1.40133172e-01 -9.65571925e-02 -1.31201386e-01]
   [-1.84881434e-01 -1.99289650e-01 -1.09614313e-01 -3.08037251e-01
    -1.49648979e-01 -1.68075323e-01 -1.17855959e-01 -1.24077640e-01
     1.14655392e-02 -2.20369369e-01 -2.46531293e-01  1.44795448e-01
    -4.07999307e-02 -1.69445202e-01 -1.01128787e-01 -1.19977795e-01]
   [ 3.41804534e-01  3.53826553e-01 -2.80413516e-02  1.09878771e-01
     5.52381456e-01  3.59933555e-01  2.76992738e-01  5.00234902e-01
     7.57199749e-02  7.05465615e-01  2.67459676e-02 -3.90003562e-01
     1.65468398e-02  5.46052098e-01  5.93964040e-01  3.89851004e-01]]

  [[-3.66311193e-01 -9.67991576e-02 -2.50318944e-01 -3.46644849e-01
    -1.72775835e-01 -2.85553467e-02 -3.54539365e-01 -1.48829430e-01
     1.58009753e-01 -1.64800793e-01 -1.53318122e-01  2.93151662e-02
    -5.07148542e-03 -7.83116892e-02 -1.68141901e-01 -2.32356768e-02]
   [-1.54145345e-01 -2.33895361e-01 -7.53689349e-01 -5.58042943e-01
     8.33878592e-02  1.35705337e-01 -5.55071950e-01  6.50101900e-03
    -1.35278776e-01 -1.61605433e-01 -5.55555820e-01 -2.01732397e-01
    -5.21773517e-01  1.90633953e-01  5.76806664e-02 -1.06138550e-01]
   [ 3.13986212e-01 -2.00997189e-01  2.07332838e-02 -1.97460145e-01
     2.96357125e-01  9.50150788e-02  2.03246877e-01 -4.10023183e-02
    -1.06189802e-01 -3.90042663e-01 -4.85701740e-01 -2.19096258e-01
    -4.76206213e-01  1.37272896e-02 -1.55600667e-01 -2.19799757e-01]
   [-2.74139140e-02 -8.99585709e-02 -3.66181970e-01 -4.20501858e-01
     1.14510536e-01  7.33994171e-02 -1.64845720e-01 -6.57187700e-02
    -1.42681748e-01 -3.57451558e-01 -6.24776006e-01 -5.43113686e-02
    -3.01340818e-01  6.66707382e-02 -1.27350599e-01 -8.20533559e-02]
   [-2.82620370e-01 -1.49529921e-02 -7.98020512e-02 -2.61554301e-01
    -1.82788223e-01 -2.62005739e-02 -1.34653091e-01 -5.34204058e-02
     2.06925347e-01 -2.74642020e-01 -2.27210194e-01  1.04560353e-01
    -4.69888095e-03 -5.38839139e-02 -1.77581698e-01 -1.41708963e-02]
   [ 1.88624799e-01  3.48092258e-01  1.10704429e-01 -8.88339579e-02
     1.86668485e-01 -1.85933504e-02  6.46796003e-02  5.43341756e-01
    -1.54668577e-02  3.93952131e-01  6.86334744e-02 -5.33064961e-01
     5.18566221e-02  3.13905925e-01  3.73009950e-01  3.64299387e-01]]

  [[-3.73191416e-01 -7.21370876e-02 -3.42389464e-01 -2.34049603e-01
    -1.91915348e-01 -1.19746387e-01 -1.88319072e-01 -1.56831130e-01
     1.39684707e-01 -1.99735776e-01 -2.34442234e-01  2.88186483e-02
    -1.01863503e-01 -6.34031892e-02 -1.78396672e-01 -1.40428394e-01]
   [ 1.90438647e-02 -9.41213667e-02 -6.17178679e-01 -5.56880414e-01
    -3.12991254e-02  1.18491352e-01 -4.06007022e-01 -8.36880282e-02
    -3.13298434e-01 -2.05513895e-01 -5.76256931e-01 -3.61466080e-01
    -4.55816984e-01  9.62010473e-02  8.15807879e-02 -1.32695064e-01]
   [ 5.00285327e-01 -1.48165435e-01  1.73266485e-01 -4.40434068e-02
     1.25522137e-01  2.34943196e-01  7.33438209e-02 -1.53939515e-01
    -2.27372691e-01 -2.76565731e-01 -4.71936643e-01 -2.86390930e-01
    -3.81537735e-01  1.25493586e-01 -2.12163433e-01 -3.53239179e-01]
   [ 9.50706303e-02  1.34819644e-02 -2.12600440e-01 -2.96274066e-01
     2.99656000e-02  9.37978774e-02 -2.75551349e-01 -4.66189012e-02
    -1.34888822e-02 -2.85874218e-01 -5.21210253e-01 -4.78925966e-02
    -2.76323915e-01 -3.68621410e-03  6.41973736e-03 -2.42613316e-01]
   [-3.20261389e-01 -1.22358881e-01 -1.67646840e-01 -2.43299678e-01
    -1.15748942e-01 -2.25581706e-01 -1.52030244e-01 -6.91797212e-02
     2.39411136e-03 -1.80502906e-01 -1.59940079e-01  2.50016391e-01
     6.22740462e-02 -1.52207807e-01 -9.54797119e-02 -1.51279882e-01]
   [ 2.83102036e-01  1.93433970e-01  1.92379907e-01 -4.82787825e-02
     2.56493390e-02  1.52938858e-01  5.36698997e-02  4.23956603e-01
     2.79046178e-01  2.88482070e-01  6.78847879e-02 -4.01671767e-01
     7.31694847e-02  5.43237448e-01  4.24236000e-01  2.82298177e-01]]

  [[-4.98610705e-01 -3.63058113e-02 -3.84994745e-01 -2.69704312e-01
    -1.21909767e-01 -1.10318087e-01 -3.45981836e-01 -1.05042174e-01
     3.77279520e-02 -1.54951528e-01 -1.96376830e-01  1.74771413e-01
     1.69001315e-02 -7.61953369e-02 -1.63209483e-01 -1.84489444e-01]
   [-1.21067941e-01 -6.89661652e-02 -4.82194304e-01 -4.65714186e-01
     3.48908640e-02  2.07347259e-01 -5.29014885e-01 -1.64430186e-01
    -1.32858500e-01 -1.95954129e-01 -6.92665339e-01 -2.38390028e-01
    -2.14354232e-01  1.47229239e-01 -6.21204153e-02 -3.45186144e-01]
   [ 5.86856067e-01 -2.24943891e-01  1.67745680e-01 -1.85864359e-01
     1.40893772e-01  3.02120686e-01  9.10568517e-03 -2.00237900e-01
    -1.89107805e-01 -3.70486438e-01 -4.56519365e-01 -1.33737564e-01
    -2.58833736e-01  2.01895684e-01 -3.78822327e-01 -3.28322321e-01]
   [ 1.50753468e-01  6.95316419e-02 -2.84073234e-01 -3.04788738e-01
     6.43460602e-02  2.17018083e-01 -1.90493777e-01 -8.60525519e-02
    -7.48343617e-02 -2.03803003e-01 -5.18735349e-01 -9.83144641e-02
    -4.91533987e-02  7.22988416e-03 -1.98143303e-01 -1.87672958e-01]
   [-4.24518198e-01 -1.29050419e-01 -2.85582274e-01 -3.10523659e-01
    -2.63355374e-01 -1.82833359e-01 -1.33532330e-01 -1.43024176e-01
     1.09467149e-01 -1.76539332e-01 -1.20287292e-01  1.22005381e-01
     1.91936530e-02 -1.34212926e-01 -2.17843056e-01 -1.82779253e-01]
   [ 1.80323362e-01  1.46869227e-01  1.50299683e-01  2.48701051e-02
     2.32539773e-01  3.44754785e-01  3.18718664e-02  4.39563662e-01
     2.19178170e-01  4.50860441e-01  1.10958386e-02  2.45712623e-02
     2.97775596e-01  5.57184458e-01  3.82169366e-01  1.39342800e-01]]

  [[-4.12022591e-01 -1.31457010e-02 -4.01016831e-01 -2.21268266e-01
    -1.95313543e-01 -1.32059440e-01 -2.75307178e-01 -1.61495149e-01
     2.31337659e-02 -2.36739159e-01 -2.09436357e-01  1.88866884e-01
     8.00710320e-02 -1.49474174e-01 -6.33067042e-02 -1.64298877e-01]
   [-4.22049016e-02  5.39371511e-03 -3.82641822e-01 -5.59140444e-01
    -1.93860065e-02  3.99661958e-02 -6.01116776e-01 -1.29881248e-01
    -1.73598930e-01 -8.06593895e-02 -6.31633043e-01 -2.25309461e-01
     1.10575026e-02  1.43886209e-01 -5.19322418e-02 -1.77967399e-01]
   [ 5.15087843e-01 -3.14935632e-02  3.64461839e-01 -1.08148888e-01
     1.50265217e-01  2.08845288e-01 -4.57752943e-02 -1.19377479e-01
    -1.78561255e-01 -2.86146313e-01 -5.07673085e-01  1.36835850e-03
    -4.22184132e-02  2.00782135e-01 -2.31930226e-01 -3.00162971e-01]
   [ 1.61936834e-01  1.09574877e-01 -1.42015383e-01 -2.45573312e-01
     3.00548039e-02 -2.41363794e-03 -3.73555779e-01 -1.50514737e-01
     5.74196242e-02 -2.32759133e-01 -5.11963665e-01 -6.08378313e-02
     3.38432081e-02  8.74391273e-02 -1.03345558e-01 -1.31310180e-01]
   [-3.59174460e-01  6.88888058e-02 -2.27574468e-01 -2.90941536e-01
    -2.79608786e-01 -8.23053345e-02 -1.39902681e-01 -1.70107871e-01
     1.68341175e-01 -2.17174336e-01 -2.30172485e-01  7.03856349e-02
     6.69013634e-02 -1.83908850e-01 -1.19042657e-01 -8.25859085e-02]
   [ 3.09190989e-01  6.26773909e-02  3.12424839e-01  8.18827525e-02
     4.63785082e-01  4.20261294e-01  2.13059098e-01  5.07330060e-01
     3.48226547e-01  3.67791504e-01  1.54045448e-01  1.41614482e-01
     1.08816564e-01  6.48099303e-01  6.07651472e-01  1.89859763e-01]]]


 [[[-2.11068317e-01 -1.21262707e-01 -1.03718773e-01 -1.52435213e-01
    -5.02909385e-02 -1.14414386e-01 -2.36151904e-01 -9.04541388e-02
     5.20612160e-03 -1.29829451e-01 -8.22172090e-02  1.45021575e-02
    -4.12531160e-02 -3.98741802e-03 -9.27367434e-02  7.62334764e-02]
   [-1.94010496e-01 -1.38044655e-01 -3.97002101e-01 -4.07881916e-01
     1.41855404e-02 -2.04584971e-01 -5.84740452e-02 -2.48532929e-02
     9.57658514e-02  1.14515014e-01 -1.99571177e-01 -1.95812266e-02
    -2.19530508e-01  1.16004504e-01 -1.33683100e-01  1.74276441e-01]
   [ 1.20019212e-01 -3.00410748e-01  2.28648618e-01  6.71383739e-02
    -1.39346477e-02 -1.00335859e-01  5.43481469e-01 -9.03307181e-03
    -1.22011207e-01 -6.03308901e-02  1.21085837e-01 -5.50198406e-02
    -3.49086702e-01 -1.58144251e-01 -2.96438783e-01  1.13934642e-02]
   [-4.79593612e-02 -1.85392886e-01 -1.18180037e-01 -2.46012896e-01
     9.46582034e-02  2.05608215e-02 -3.90907265e-02 -3.61631787e-03
     1.14684723e-01 -5.95926447e-03 -2.66905844e-01  5.46598993e-02
    -3.04722697e-01  1.04947127e-02 -1.65841848e-01  1.08989447e-01]
   [-3.21852624e-01 -1.13835715e-01 -4.10233065e-02 -3.04407239e-01
    -1.73461452e-01 -1.67783275e-01 -3.00513208e-01 -1.90022495e-02
     1.95862465e-02 -1.40671581e-01 -1.67312071e-01  1.21586837e-01
    -8.30071419e-02  8.33333582e-02 -1.12456337e-01  6.97533712e-02]
   [ 4.41007912e-01  3.79003048e-01  1.70243144e-01 -1.91662088e-02
     5.50251901e-01  2.76509374e-01  2.62075007e-01  6.69505477e-01
     1.39888659e-01  3.68147850e-01  1.77526385e-01 -4.60459352e-01
     6.47616014e-02  3.80651146e-01  5.98977685e-01  3.90972495e-01]]

  [[-3.73022199e-01 -2.79714428e-02 -1.83398172e-01 -3.33214313e-01
    -1.18415151e-02 -4.39048745e-02 -3.41368824e-01 -8.80090892e-02
     1.45693958e-01  4.48367223e-02 -2.08126515e-01  1.34597972e-01
     8.12415406e-02  6.92385361e-02 -4.36552428e-02 -4.12690267e-02]
   [-6.14951812e-02  4.59194835e-03 -4.76468444e-01 -4.78650004e-01
     7.95195252e-02 -5.82032325e-03 -1.53049067e-01 -1.34940669e-01
    -1.06854126e-01 -7.36626983e-02 -2.30419025e-01 -3.30969274e-01
    -2.31640190e-01  1.85184017e-01  1.43321559e-01 -1.05133466e-02]
   [ 3.43759120e-01 -2.34877482e-01  2.99495399e-01 -4.75073000e-03
     1.70353428e-01  6.15636446e-02  3.68687302e-01  7.18669444e-02
    -2.15142414e-01 -2.40332007e-01  5.40335756e-03 -2.07922980e-01
    -4.00889069e-01 -3.54263037e-02 -3.38886529e-02 -1.59704030e-01]
   [ 1.62154483e-03 -1.68536559e-01 -1.61503807e-01 -2.57528603e-01
     1.47520587e-01  6.58469424e-02 -1.69278532e-01 -1.17117390e-01
    -7.99632668e-02 -1.18561409e-01 -3.68849158e-01 -1.03680745e-01
    -1.08710505e-01  2.70901844e-02 -3.68249863e-02 -3.08417007e-02]
   [-3.50197285e-01 -1.48590311e-01 -1.53870853e-02 -1.80670515e-01
    -5.11097200e-02 -9.59098265e-02 -2.30338901e-01 -1.43258497e-01
     2.18588281e-02 -6.51828423e-02 -1.69974461e-01  2.16091037e-01
    -2.15714239e-02 -5.91401085e-02 -4.28957976e-02 -8.22696164e-02]
   [ 4.68853354e-01  2.95130104e-01  1.36900768e-01 -6.10339381e-02
     1.83871090e-01  2.22287878e-01  2.19362631e-01  3.19233179e-01
     1.60920154e-02  1.63394555e-01  1.77484080e-01 -5.03230453e-01
    -1.33135896e-02  4.75814670e-01  3.25370044e-01  3.03034514e-01]]

  [[-5.01619279e-01  3.97025570e-02 -1.36015445e-01 -2.73765028e-01
    -1.21892132e-01  1.95670594e-02 -3.89448822e-01  2.14339350e-03
     1.55100927e-01 -3.05932127e-02 -1.44352792e-02  1.73956275e-01
     1.16097346e-01 -1.63253069e-01  1.14971930e-02  1.13241315e-01]
   [ 4.84698936e-02  2.39424724e-02 -4.31582570e-01 -3.58821720e-01
     1.34177715e-01 -8.86159912e-02 -4.31723148e-01 -1.57693461e-01
    -1.68168589e-01 -5.69175966e-02 -2.57558078e-01 -2.97851264e-01
    -2.57350594e-01  4.08829264e-02  9.95715931e-02 -1.79435492e-01]
   [ 6.35229886e-01 -1.54349655e-01  5.21299839e-02 -6.36028796e-02
     3.50400180e-01  2.36256450e-01  2.07930401e-01 -1.31445443e-02
    -2.51837194e-01 -2.27010831e-01 -9.49986279e-03 -1.66697487e-01
    -4.27243978e-01  4.03533466e-02 -1.35804206e-01 -2.98987955e-01]
   [ 1.95021048e-01 -9.85586829e-03 -1.39269799e-01 -3.55604798e-01
     1.09842673e-01  5.32063358e-02 -1.90660819e-01 -1.73592195e-01
    -2.09982060e-02 -1.28665879e-01 -3.17599297e-01 -4.36264873e-02
    -2.00919509e-01 -1.21543221e-02 -7.06957206e-02 -1.03681818e-01]
   [-4.12775964e-01 -1.10115826e-01  8.18831287e-03 -2.55680144e-01
    -1.55157074e-01 -7.60271549e-02 -2.97262132e-01 -1.15135752e-01
     5.61275370e-02  3.90865169e-02 -6.76874965e-02  2.74752051e-01
     3.38808284e-03 -1.32079616e-01  7.15064406e-02 -2.26390641e-02]
   [ 3.05276513e-01  2.30824634e-01  1.13924295e-01  2.70205308e-02
     1.25899628e-01  4.66078937e-01  1.80038542e-01  4.18798834e-01
     2.07676187e-01  2.05999836e-01  2.64777094e-01 -2.86605775e-01
     4.50644903e-02  5.35094619e-01  2.94765353e-01  2.96137929e-01]]

  [[-5.37565708e-01 -4.99846935e-02 -2.20473036e-01 -1.22952878e-01
    -2.65306812e-02 -1.76180795e-01 -3.99613947e-01 -3.38479616e-02
     1.51539102e-01  5.67754358e-02 -5.65933771e-02  1.35205105e-01
    -3.48146795e-03 -1.78730041e-02  6.36264831e-02 -1.17675755e-02]
   [ 1.29982799e-01  4.72749136e-02 -4.92753983e-01 -3.96232963e-01
     1.25768468e-01 -4.43557929e-03 -3.59579235e-01 -1.59280792e-01
    -1.43748581e-01  2.47308984e-02 -4.10431206e-01 -2.29367897e-01
    -6.42123669e-02 -4.66422513e-02 -6.60741776e-02 -7.02636242e-02]
   [ 6.64962471e-01 -8.80006775e-02  1.29865423e-01  5.91940470e-02
     1.31767288e-01  1.77778661e-01  2.43716568e-01  3.33139277e-03
    -2.86363870e-01 -2.31245771e-01 -3.85480262e-02 -1.51298742e-03
    -2.25762799e-01 -4.28775959e-02 -1.28258765e-01 -3.29063892e-01]
   [ 1.30847469e-01 -2.07404196e-02 -1.02731660e-01 -3.22423756e-01
    -1.53873283e-02 -5.35591953e-02 -1.97915062e-01 -1.56377777e-01
    -1.18731208e-01  4.39227559e-02 -4.31911230e-01 -3.41468677e-02
    -7.37067964e-03 -8.53227675e-02  8.16791318e-04 -2.04579800e-01]
   [-3.82898450e-01 -1.15028657e-02 -8.45682323e-02 -1.86549678e-01
    -1.56643212e-01 -5.58793880e-02 -2.51976132e-01 -1.27371401e-01
     8.49440917e-02 -1.13451995e-01 -8.96653086e-02  8.05611908e-02
    -1.06264045e-02 -6.83522820e-02  9.89715010e-03  4.84399199e-02]
   [ 3.16167206e-01  1.11332990e-01  3.44992906e-01 -2.63108071e-02
     2.44288296e-01  4.74289924e-01  2.32860565e-01  2.96708882e-01
     2.84393549e-01  4.16743159e-01  1.89971283e-01 -5.43308407e-02
     2.56481230e-01  7.74960101e-01  2.85558075e-01  1.39845863e-01]]

  [[-4.27395761e-01  1.28815696e-01 -2.71754086e-01 -6.65229261e-02
    -1.21930592e-01  1.39301363e-02 -4.20560539e-01 -8.73252153e-02
     1.61489043e-02 -1.71138849e-02 -1.98224142e-01  1.55767590e-01
     6.41700402e-02 -5.35872877e-02 -7.65721425e-02 -4.04461809e-02]
   [ 6.66082203e-02  7.87000284e-02 -3.42988163e-01 -3.94546866e-01
    -8.99737179e-02 -4.91002277e-02 -5.30197978e-01 -5.75688593e-02
     4.93600732e-03 -3.57554778e-02 -4.42909718e-01 -1.43223092e-01
    -5.42213917e-02 -1.65488139e-01 -6.11170288e-03 -1.82897910e-01]
   [ 5.28315842e-01 -8.92038196e-02  3.52810740e-01 -3.15600075e-02
    -4.81093721e-03  6.65887147e-02  2.56028622e-01 -1.00911207e-01
    -1.75637618e-01 -1.56153038e-01 -2.73978442e-01 -2.29982864e-02
    -1.98760852e-01 -1.14432506e-01 -3.22525501e-02 -2.40055859e-01]
   [ 2.06942365e-01  1.16103478e-01  2.73133274e-02 -2.33115494e-01
    -1.50804892e-02 -4.83710645e-03 -3.19101244e-01  1.73797924e-02
    -1.90736037e-02  9.25516635e-02 -4.41219389e-01 -7.59994984e-02
     6.39690980e-02 -1.63287833e-01  1.53491069e-02 -2.15219110e-01]
   [-3.36076021e-01  1.41651988e-01 -1.59873918e-01 -1.39196306e-01
    -1.13463707e-01 -7.37480074e-03 -2.60098279e-01  4.66698632e-02
     2.21797964e-03  2.84286048e-02 -1.30837679e-01  1.43730611e-01
     7.63444230e-02 -1.81415424e-01 -1.20805882e-01 -1.89642347e-02]
   [ 2.04125792e-01  1.22058257e-01  4.89376068e-01  1.77679956e-02
     2.39879981e-01  3.30097646e-01  1.62900954e-01  5.25235116e-01
     3.47732186e-01  2.77623892e-01  6.72718287e-02 -4.62785661e-02
     2.05738932e-01  8.02039325e-01  3.82258296e-01  9.17893648e-02]]]


 [[[-1.47721231e-01 -8.11332166e-02 -4.78609875e-02 -1.04106389e-01
     9.72471684e-02 -8.50618035e-02 -2.28420004e-01 -1.11661807e-01
    -6.30664900e-02 -2.97552464e-03  6.11523800e-02 -6.05916828e-02
    -1.15678534e-01  1.52700126e-01  2.01359745e-02  5.32389171e-02]
   [-2.76476681e-01 -1.97714657e-01 -1.65893197e-01 -2.71794349e-01
     7.53024071e-02 -2.36308113e-01  7.83975720e-02 -1.20746754e-01
    -4.37486032e-03  7.37063140e-02  1.41837820e-01 -1.32038206e-01
    -1.93380833e-01  9.39120632e-03 -2.21839622e-01  1.61424071e-01]
   [ 1.94715232e-01 -4.48988378e-01  1.12979554e-01  1.34459406e-01
     1.56207874e-01 -1.06402740e-01  4.41302091e-01  7.60508562e-03
    -2.24557683e-01 -4.14856106e-01  4.78029996e-02 -1.52126744e-01
    -4.59900677e-01 -5.02963252e-02 -3.67998302e-01 -1.01680815e-01]
   [-1.38116237e-02 -1.74281299e-01 -1.38606668e-01 -1.12257317e-01
     8.63661841e-02 -4.09738533e-02  8.19947012e-03  1.92916282e-02
     6.53071329e-02 -7.15762898e-02 -7.50156492e-02  1.99803039e-02
    -2.97267675e-01 -5.27835973e-02 -6.56986311e-02 -9.59052220e-02]
   [-8.07750821e-02 -1.47161335e-01  7.18251094e-02 -6.26890808e-02
    -6.02467023e-02 -5.86036146e-02 -5.88270649e-02  5.11089573e-03
     6.46323264e-02 -4.89628315e-02 -4.32556532e-02  5.14892302e-02
    -6.43823072e-02 -7.28976727e-02 -4.87532616e-02  3.63541842e-02]
   [ 5.07866502e-01  4.62446362e-01  1.77951530e-01  1.16103426e-01
     5.88172317e-01  2.46690318e-01  3.11348259e-01  6.44472122e-01
     2.08431244e-01  3.32744509e-01  1.73191667e-01 -2.28459030e-01
    -9.98518243e-03  3.06774229e-01  4.45361495e-01  4.52104002e-01]]

  [[-3.62004936e-01 -1.27124295e-01  1.61566830e-04 -1.43681675e-01
     6.84972713e-03 -1.49263099e-01 -2.56573558e-01 -3.12019587e-02
    -1.14779718e-01  1.47712618e-01  7.76534528e-02  1.10300549e-03
     1.78034473e-02  5.58530241e-02 -6.43059090e-02  2.97026113e-02]
   [-3.07911597e-02 -1.85582906e-01 -1.79686904e-01 -1.25810623e-01
     1.34099573e-01 -6.80530295e-02 -5.87801896e-02 -7.83870816e-02
    -2.18869597e-02  1.44508751e-02 -3.48407291e-02 -2.85590112e-01
    -1.82784855e-01  8.22452009e-02 -1.30859688e-01 -9.55548212e-02]
   [ 4.42166537e-01 -3.46759766e-01  4.17588353e-02  2.38343284e-01
     4.03392375e-01  1.85816437e-01  2.92451769e-01 -6.48752833e-03
    -2.85630912e-01 -3.13842744e-01 -8.00155476e-02 -1.82208076e-01
    -5.00797570e-01  6.15493814e-03 -3.24273497e-01 -3.47336769e-01]
   [-3.48106623e-02 -8.58983397e-02 -1.78359941e-01  8.15405697e-03
     1.35732189e-01  4.25907224e-02 -1.02666110e-01  3.98640148e-02
    -9.18246955e-02 -8.83550644e-02 -2.35614687e-01 -7.76716024e-02
    -2.85276681e-01 -5.76232858e-02 -1.19749293e-01 -6.00701049e-02]
   [-3.43598962e-01 -1.51614055e-01 -7.87765235e-02 -1.86905995e-01
     2.44963430e-02 -1.06257476e-01 -2.37306505e-01 -1.34584308e-01
    -9.79049131e-03 -4.71712388e-02 -1.19633637e-01  2.28192136e-01
     3.03853154e-02 -5.54523654e-02  1.03534721e-01 -1.63127407e-02]
   [ 5.78913689e-01  3.27714652e-01  2.31489167e-01 -3.35674696e-02
     3.52408350e-01  1.84642121e-01  3.10588956e-01  2.58577228e-01
     2.16229498e-01  8.43919814e-02  2.11242631e-01 -3.40800226e-01
    -1.08926989e-01  3.60056907e-01  2.51218379e-01  1.93360895e-01]]

  [[-2.94333279e-01  2.63772830e-02  4.48860303e-02 -1.14292264e-01
    -1.15745403e-02 -1.07464299e-01 -2.19387114e-01 -3.48394401e-02
    -8.45012739e-02  1.36554107e-01  1.72873382e-02  8.68219361e-02
     5.85721247e-02 -3.78179215e-02  1.19394399e-01  3.87988538e-02]
   [ 2.33669430e-01 -6.43031374e-02 -3.44343364e-01 -1.16011851e-01
     2.56468445e-01 -1.40402511e-01 -9.06030014e-02 -1.10525541e-01
    -1.90332502e-01 -2.59014033e-02 -5.51470779e-02 -2.82319099e-01
    -2.25460291e-01  4.56811525e-02 -4.08633165e-02 -1.03314042e-01]
   [ 5.05586445e-01 -2.27228031e-01 -5.32934256e-02  2.59037703e-01
     4.52546597e-01  2.05624864e-01  1.82762161e-01  4.21498977e-02
    -3.78052235e-01 -2.04321325e-01 -1.85580328e-01 -1.23629510e-01
    -5.59298575e-01  1.05453767e-01 -2.69108087e-01 -3.48991156e-01]
   [ 8.40465203e-02 -1.60869136e-01 -2.52791584e-01 -1.24745660e-01
     1.00412041e-01 -3.25470641e-02 -8.63660350e-02  2.31498480e-02
    -1.26933947e-01 -5.99677376e-02 -1.63282156e-01 -5.07371202e-02
    -1.15361571e-01 -1.31795600e-01 -1.32869408e-01 -1.44777685e-01]
   [-3.69693905e-01  4.69414666e-02 -8.23399723e-02 -1.76957339e-01
    -7.01623783e-02 -2.11600333e-01 -1.33567035e-01 -7.44980648e-02
     7.32001513e-02  8.62379000e-02 -2.05756910e-02  6.00828715e-02
     1.32677611e-02 -1.76396161e-01 -2.49020550e-02 -7.52661517e-03]
   [ 4.31130856e-01  2.96335310e-01  2.12330937e-01 -4.86736111e-02
     3.01057428e-01  4.32461739e-01  2.28886306e-01  3.39650512e-01
     3.01513761e-01  7.14584962e-02  2.53394037e-01 -1.59660384e-01
     8.68377239e-02  4.97106522e-01  2.82641321e-01  2.59981960e-01]]

  [[-3.78912985e-01 -1.52554223e-02 -1.82376802e-02 -1.04026698e-01
    -1.07956946e-01 -1.13368005e-01 -3.03041637e-01 -2.68556178e-02
    -8.66300315e-02  1.23854212e-01  6.91432133e-02  7.08346546e-04
    -4.31484468e-02 -1.44133002e-01 -2.62159240e-02  9.11357403e-02]
   [ 1.66207150e-01  8.52337033e-02 -2.16766015e-01 -1.05803095e-01
     2.66679764e-01 -1.41249537e-01 -2.28157744e-01 -2.47395426e-01
    -1.91337839e-01  8.79924968e-02 -7.94060156e-02 -2.12629542e-01
    -2.34549362e-02 -1.63662881e-01  3.25444490e-02 -1.62914678e-01]
   [ 3.68132949e-01 -8.47004801e-02  9.31390654e-03  2.16255799e-01
     4.86431628e-01  1.75305590e-01  1.26770809e-01 -1.37992188e-01
    -4.62549716e-01 -2.68788874e-01 -1.88283369e-01 -1.19050853e-01
    -2.82782018e-01  4.52203117e-02 -1.66881308e-01 -4.79545265e-01]
   [ 1.99062616e-01  5.01159288e-04 -7.60156959e-02  4.99595962e-02
     1.43112034e-01  4.80722524e-02 -1.41308114e-01 -1.37812838e-01
    -1.81192234e-01  1.34620443e-02 -2.89366156e-01 -1.67386141e-03
    -1.16034430e-02 -5.39307110e-02 -4.05340940e-02 -1.37146190e-01]
   [-2.03293860e-01  1.20277358e-02 -9.34033543e-02 -3.19118029e-03
    -1.74049050e-01 -1.64749309e-01 -3.11640024e-01 -7.36870021e-02
    -1.03316478e-01 -7.21770748e-02 -9.19721425e-02  3.64233293e-02
    -2.28773560e-02 -1.37212530e-01  1.81525033e-02 -1.03624217e-01]
   [ 2.24088475e-01  1.78698123e-01  1.64019167e-01  1.35639220e-01
     1.83351696e-01  5.19153237e-01  2.75256425e-01  2.11422741e-01
     3.02010596e-01  2.46027574e-01  1.56859994e-01 -2.18826998e-02
     2.09107533e-01  6.72911286e-01  2.61467814e-01  5.91540672e-02]]

  [[-2.63658643e-01  8.93469714e-03 -5.13442904e-02 -9.05383304e-02
     2.57587209e-02 -3.78004722e-02 -3.46481025e-01 -8.22032019e-02
     4.91809025e-02  7.47037902e-02 -2.34972145e-02  1.57208517e-01
     1.27399296e-01 -1.32313296e-01  5.06010689e-02 -2.61947792e-02]
   [ 1.02057524e-01  1.04319274e-01 -2.12833166e-01 -2.15789512e-01
     1.33790880e-01 -1.06758736e-01 -3.45596254e-01 -2.25678697e-01
    -4.41826805e-02  4.49800957e-03 -2.35191956e-01 -2.09186554e-01
     1.06293568e-02 -2.29223832e-01 -5.12270890e-02 -9.24752429e-02]
   [ 3.54502738e-01 -1.29013330e-01  2.36498907e-01  3.25079799e-01
     7.55455494e-02  1.90517474e-02  1.91396326e-01 -2.51960102e-02
    -2.23440513e-01 -8.79596248e-02 -1.85675398e-01 -3.00045293e-02
    -1.92521229e-01  3.04776803e-02 -1.43744215e-01 -3.39109153e-01]
   [ 1.97916594e-03  2.16128990e-01 -1.62992448e-01  5.26375324e-02
     2.15194188e-02 -1.30696585e-02 -2.18631253e-01 -1.31843299e-01
    -1.89870313e-01  2.25443486e-02 -3.51488382e-01 -7.03186840e-02
     8.21514055e-02 -2.59337366e-01 -5.26263714e-02 -1.28816620e-01]
   [-1.10449135e-01  3.36511917e-02 -1.15321703e-01 -1.03882626e-01
    -1.56463221e-01 -1.67597577e-01 -2.82346785e-01  5.67101836e-02
    -9.19643044e-02  6.04597591e-02  1.89912096e-02  1.78369477e-01
     4.34598885e-02 -1.42408103e-01  7.49511942e-02 -1.53014837e-02]
   [ 2.31606901e-01  3.35533649e-01  5.93130469e-01  1.61238268e-01
     1.56611517e-01  2.98825353e-01  3.14458311e-01  4.39623564e-01
     3.16620469e-01  2.25949019e-01  5.04852980e-02  4.47031781e-02
     4.14184153e-01  6.74999595e-01  3.56233120e-01  1.23495862e-01]]]


 [[[-5.23102693e-02 -1.26897812e-01  2.85011367e-03 -5.26099727e-02
     2.01143011e-01 -5.92996292e-02 -7.76995569e-02 -2.71444302e-02
    -1.57939762e-01  1.33527026e-01  1.81780636e-01  8.57508034e-02
    -1.25347853e-01  9.04515460e-02  1.15168877e-01  5.60087450e-02]
   [-1.46011963e-01 -2.57479865e-02 -1.59156933e-01  1.42690212e-01
    -2.24378064e-01 -1.29855484e-01 -3.23732644e-02 -4.10518311e-02
     1.09539352e-01  2.56346632e-02  2.13758022e-01 -2.11603820e-01
    -1.02453649e-01  3.35620977e-02 -1.29719853e-01  8.76866356e-02]
   [ 2.18148857e-01 -2.62209773e-01 -7.40024354e-03  4.87573594e-01
     8.61288086e-02  2.22360000e-01  5.74251264e-02  1.28006056e-01
    -2.11683229e-01 -3.18816215e-01 -1.75291538e-01 -2.20073491e-01
    -3.90203565e-01  2.16307357e-01 -9.53501090e-02 -1.49943382e-01]
   [-9.69478395e-03 -1.99248716e-01 -1.49537459e-01  1.42234787e-01
    -4.39804643e-02  9.11518559e-02  1.95065774e-02 -4.52002548e-02
    -5.03432155e-02 -1.40108779e-01 -8.37839916e-02 -2.16853991e-02
    -2.11240828e-01  7.16541111e-02 -1.92996845e-01 -8.07610899e-02]
   [-8.76273364e-02 -4.74773720e-02  1.28657520e-01 -8.32443312e-02
     1.53942630e-01 -1.08620584e-01 -3.20201032e-02 -1.01765864e-01
    -5.30889072e-02  1.89782325e-02 -1.39329992e-02  8.02310109e-02
    -1.60423815e-01  8.59699994e-02  6.03737719e-02 -1.45630136e-01]
   [ 3.17274749e-01  4.41624284e-01  1.21790469e-01  8.91357064e-02
     3.71056974e-01  4.58379000e-01  3.56526792e-01  5.10919631e-01
     5.47188580e-01  1.64065808e-01  2.20570177e-01 -1.45238578e-01
     2.09686682e-01  4.01607364e-01  3.05287510e-01  4.08532441e-01]]

  [[-1.88397452e-01 -1.69326007e-01  1.70393344e-02  8.55093747e-02
     1.34356171e-01 -1.44848034e-01  6.91723749e-02 -1.06464341e-01
    -6.50014505e-02  1.70193687e-02  1.12977579e-01 -6.96045756e-02
    -8.35652724e-02 -1.19763277e-02  7.93889835e-02  5.50278090e-02]
   [-7.59558454e-02  1.68172680e-02 -7.46880546e-02  1.49673015e-01
    -1.36955373e-03  9.58902314e-02  2.09456962e-03 -7.42317438e-02
     8.13406929e-02  1.69761926e-01  1.80119947e-01 -1.33629918e-01
    -7.23472089e-02  1.15918793e-01 -1.94190264e-01  1.31398439e-01]
   [ 2.24465460e-01 -3.02361220e-01 -1.79938838e-01  5.26480734e-01
    -4.24809605e-02  4.55433995e-01 -6.22048043e-02  5.45363650e-02
    -3.24679971e-01 -1.24806307e-01 -3.37875247e-01 -1.88224822e-01
    -4.67114478e-01  2.24220291e-01 -2.33008668e-01 -2.22681850e-01]
   [ 1.55609380e-03 -1.31442696e-01  4.10298705e-02  2.04652593e-01
    -1.51504174e-01 -1.64236582e-03  6.59664348e-03  4.57074344e-02
    -1.33574143e-01 -2.11121589e-02 -7.70686492e-02 -7.27989748e-02
    -1.80767849e-02  4.41360138e-02 -1.86226651e-01  7.10959965e-03]
   [-6.13016561e-02 -7.81252384e-02  5.09276129e-02  7.61506185e-02
     1.89972781e-02 -1.06103800e-01 -1.04668550e-01 -1.48507372e-01
    -1.14145083e-02 -2.82133906e-03 -4.49335240e-02  1.84426438e-02
    -1.23762920e-01 -2.99234148e-02  6.18975274e-02 -7.14867339e-02]
   [ 3.78807247e-01  2.85858035e-01  4.59050983e-02  1.37662264e-02
    -2.46284939e-02  2.90503442e-01  2.15697572e-01  2.94435263e-01
     3.24986875e-01  1.12291791e-01  1.32002860e-01 -1.89434469e-01
     9.21328962e-02  4.93897319e-01  1.57954797e-01  2.35047206e-01]]

  [[-8.82154554e-02  2.22277734e-02  1.01518735e-01 -7.48849800e-03
     7.72017911e-02 -4.93299253e-02 -7.65683427e-02 -4.67940383e-02
    -1.60078153e-01  7.25821331e-02  1.87280968e-01  4.20369431e-02
     2.29236968e-02 -6.04080223e-02 -6.82093799e-02  3.53143774e-02]
   [ 1.49465859e-01  8.15254301e-02 -8.95973518e-02  1.17226288e-01
    -1.04586378e-01  1.70082569e-01  1.72484946e-03  7.79332295e-02
    -4.08628173e-02  3.94020379e-02  5.36051206e-02 -3.27860653e-01
    -6.49561780e-03  8.21767747e-02 -1.28852561e-01  5.57683930e-02]
   [ 1.50729805e-01 -2.50025690e-01 -8.16199929e-02  5.15819430e-01
     3.60469893e-02  3.86240453e-01 -4.63620350e-02  1.25812277e-01
    -4.13025647e-01 -7.22554699e-02 -3.81779730e-01 -1.10315025e-01
    -4.09154326e-01  3.73503208e-01 -1.58366263e-01 -3.70930195e-01]
   [ 9.95039269e-02  7.13627115e-02 -3.54814380e-02  2.83556134e-01
    -1.93061158e-01  1.51819780e-01 -4.43097204e-02  1.27313927e-01
    -1.30385369e-01  1.30060270e-01 -5.23233265e-02 -5.00389896e-02
    -1.52886882e-01 -3.32107134e-02 -4.21887338e-02  1.48330154e-02]
   [-2.02013656e-01 -5.91485165e-02  3.12529393e-02  6.56921789e-02
    -6.58026636e-02 -1.87692538e-01  5.22747524e-02 -1.26842156e-01
    -1.59987450e-01  3.70118544e-02 -2.46639065e-02  1.35245487e-01
    -2.66121458e-02 -1.68732598e-01  9.63167623e-02 -8.55872259e-02]
   [ 3.23181808e-01  1.52399480e-01  1.48161948e-01  5.65400459e-02
     1.41784936e-01  4.90412056e-01  2.25625724e-01  1.41655982e-01
     4.00531858e-01  3.69883236e-03  1.53297663e-01 -1.72790587e-01
     2.53027618e-01  5.08290708e-01 -8.59302655e-03  2.89296776e-01]]

  [[-2.14533269e-01  4.80315872e-02 -2.98989788e-02  8.60410929e-02
     5.46942241e-02 -2.51859784e-01 -1.00225687e-01 -1.05140805e-01
    -1.84129074e-01 -2.54347213e-02  1.54456347e-01 -5.06781694e-03
     2.62977220e-02 -2.20276102e-01 -6.73194826e-02 -1.37737859e-03]
   [ 2.84101572e-02  1.53955087e-01 -2.66991168e-01  2.64810890e-01
    -1.32230431e-01  3.56786884e-02 -8.74268264e-02 -1.29694283e-01
    -1.30652457e-01  8.47005323e-02 -3.38473171e-02 -1.83677360e-01
     5.19070625e-02 -1.36856854e-01 -5.38015887e-02  7.91456699e-02]
   [ 8.47155303e-02 -1.88683584e-01 -1.27787471e-01  5.46283543e-01
     6.41601086e-02  4.02482301e-01  6.10335432e-02  1.80795208e-01
    -3.36122692e-01 -5.19820414e-02 -3.81489396e-01 -7.26570562e-02
    -2.78416842e-01  2.41940662e-01 -1.66374847e-01 -3.36945713e-01]
   [-3.22790183e-02  5.98576181e-02 -1.76873013e-01  3.14265579e-01
    -8.59027281e-02  6.98391572e-02 -2.13776574e-01 -6.20479807e-02
    -1.01105608e-01  3.19933631e-02 -1.98460206e-01  6.53068302e-03
    -2.81002410e-02 -1.41370192e-01  1.31064691e-02 -1.69982731e-01]
   [-1.39924854e-01  7.55335018e-02  1.51851580e-01  1.34959519e-01
     5.33008166e-02 -2.03726545e-01 -9.84984487e-02 -1.06842726e-01
    -9.08547565e-02 -5.82502298e-02  9.99532118e-02  9.31000859e-02
    -7.88263381e-02 -1.70474499e-01  9.97622833e-02  6.23703077e-02]
   [ 8.11012462e-02  3.11376691e-01  1.66203752e-01 -2.75739357e-02
     4.17345986e-02  4.18976903e-01  1.83366641e-01  1.82525843e-01
     5.30497432e-01 -2.21583936e-02  2.10091516e-01 -1.40608460e-01
     2.60412335e-01  4.06673044e-01  1.54170856e-01  1.38981715e-01]]

  [[-1.50332332e-01  1.44706130e-01 -6.91712424e-02  5.32262921e-02
    -1.87860541e-02 -1.04553059e-01  2.38630213e-02  2.67345295e-03
    -1.48947865e-01  1.66748594e-02  5.37641123e-02 -1.39019489e-02
    -9.20474976e-02 -2.28232056e-01 -1.09272171e-02  3.27371061e-02]
   [ 4.86080721e-03  1.82807043e-01 -8.89150947e-02  1.90534294e-01
    -3.10974777e-01 -9.29058865e-02 -5.33345938e-02 -9.22575146e-02
    -1.17015556e-01  1.30452722e-01 -7.10373223e-02 -1.30880326e-01
     2.88112104e-01 -1.55617237e-01 -3.33688036e-02 -5.06679192e-02]
   [ 1.53608710e-01 -1.69558395e-02  1.04625812e-02  4.37974453e-01
    -1.09899588e-01  2.42390588e-01  4.90495116e-02 -2.48991475e-02
    -3.96129549e-01  7.43986145e-02 -2.94969976e-01 -1.31346256e-01
    -8.50003436e-02 -4.71815206e-02 -1.49146631e-01 -2.97745258e-01]
   [ 8.97806138e-03  1.82653040e-01 -7.81821907e-02  2.66412169e-01
    -1.76472813e-01  5.51139340e-02 -8.27218220e-02 -1.09936044e-01
    -6.23392463e-02  1.45281389e-01 -2.48643473e-01  2.61030886e-02
     5.30692525e-02 -2.06399143e-01 -1.91953301e-01 -1.51676774e-01]
   [ 9.95251387e-02 -1.58178061e-02  1.12334982e-01  4.63855565e-02
     6.56806231e-02 -2.14823321e-01 -1.71517394e-02  2.33624615e-02
    -3.63458507e-02  9.93269533e-02 -3.16322632e-02  1.36349812e-01
    -1.01177908e-01 -2.04379007e-01  9.54157114e-02 -7.38048553e-02]
   [-1.82069466e-01  3.53213966e-01  4.20093119e-01 -3.73241007e-02
    -3.07173878e-01  2.36639410e-01  2.01962590e-01  9.90384668e-02
     4.62846547e-01  1.17782682e-01  6.32151663e-02 -9.27526690e-03
     5.26401222e-01  3.61574411e-01  5.74104562e-02  3.44885327e-02]]]


 [[[ 2.58965880e-01 -1.83945239e-01  1.63655818e-01  3.06731649e-02
     1.88601166e-01 -1.85880095e-01  1.74085468e-01  3.99044678e-02
    -2.60277122e-01  8.81029516e-02  2.56319821e-01 -8.14720467e-02
    -1.77804410e-01  8.13782513e-02  9.21071619e-02 -1.49483949e-01]
   [-9.64341313e-02 -1.06301256e-01 -9.55355465e-02  2.42415622e-01
    -5.57169795e-01 -2.52619684e-01  1.12516001e-01  4.35872143e-03
    -2.95137744e-02  5.63284121e-02  2.72182107e-01 -1.63836986e-01
    -1.97542757e-01  1.01328045e-01 -4.17216599e-01  2.35994801e-01]
   [ 1.09863898e-03 -1.83755919e-01 -1.94323957e-01  3.43454748e-01
    -6.94990933e-01  1.09895617e-01 -4.35638018e-02  1.13927260e-01
    -2.28131801e-01 -2.41664365e-01 -4.09680679e-02 -2.16898084e-01
    -4.22028124e-01 -3.81101342e-03 -4.18338448e-01 -3.07030350e-01]
   [-5.56850359e-02 -1.49741963e-01 -5.99603057e-02  1.68542311e-01
    -5.26261806e-01 -1.77713856e-01  6.45282418e-02 -1.15312882e-01
    -1.50954127e-01 -1.71446323e-01  7.67902657e-02 -6.56787530e-02
    -3.27063441e-01  4.65484597e-02 -3.63942027e-01  2.28822901e-04]
   [ 1.67051509e-01 -5.90067953e-02  2.54659820e-02 -2.55537219e-02
     1.79675937e-01 -1.42537847e-01  1.28293574e-01  2.22525392e-02
    -2.82021999e-01 -4.69193868e-02  1.37166724e-01  1.08385542e-02
    -2.40014374e-01  1.36413062e-02 -8.29435810e-02 -5.65978624e-02]
   [-1.51623741e-01  3.80055845e-01  2.39813179e-01  1.16830550e-01
    -4.70214993e-01  1.05101719e-01  7.49845207e-02  2.59689033e-01
     7.18561351e-01  1.46716326e-01  2.93337107e-01 -2.37918779e-01
     3.43078494e-01  2.61086404e-01 -1.25434041e-01  3.61517727e-01]]

  [[ 2.46855065e-01 -8.48769173e-02  6.08512461e-02  1.67601123e-01
     2.19677061e-01 -1.47861406e-01  1.86028123e-01 -1.40913337e-01
    -2.97805995e-01  8.81768018e-02  2.25530997e-01  4.71899398e-02
    -6.32423088e-02 -4.53159809e-02  1.06924579e-01 -1.55796677e-01]
   [ 2.70613525e-02 -1.07310303e-01 -1.12910464e-01  1.50621146e-01
    -7.40640998e-01 -1.42774984e-01  1.07081041e-01 -8.08936730e-02
     3.60081019e-03  1.29559696e-01  2.70325005e-01 -1.18628636e-01
    -8.44724402e-02 -2.86404602e-02 -3.60981673e-01  5.76804057e-02]
   [ 1.06642529e-01 -3.27671796e-01 -2.70796835e-01  4.37778652e-01
    -6.64095759e-01  2.39795491e-01 -1.20942444e-01 -6.03377707e-02
    -3.12203169e-01 -1.72543094e-01 -1.76549047e-01 -2.12173641e-01
    -4.89428699e-01  6.92201927e-02 -4.19612050e-01 -3.14677328e-01]
   [-6.69574887e-02 -1.52809411e-01 -8.89640301e-02  1.19622543e-01
    -5.14176846e-01 -1.03473671e-01  1.34841397e-01 -1.27395764e-02
    -1.32543534e-01 -3.60764153e-02  7.61950314e-02 -5.95434569e-02
    -2.87972808e-01  3.32853347e-02 -3.02251816e-01 -9.37484503e-02]
   [ 1.87650248e-01 -7.85122365e-02  2.87482031e-02  1.78332657e-01
     1.27292767e-01 -2.04663143e-01  1.29085481e-01 -1.55200824e-01
    -9.91542041e-02 -6.84194341e-02  1.34780005e-01 -3.33456844e-02
    -1.50058329e-01 -1.04022197e-01  4.62371074e-02 -3.36684436e-02]
   [-1.76399425e-02  4.49718893e-01  1.51819959e-01 -6.57162517e-02
    -6.02522314e-01  1.70572028e-01  8.13587308e-02  2.46276334e-01
     6.80601180e-01  1.55767307e-01  1.80369005e-01 -2.34628513e-01
     3.26042593e-01  2.46303052e-01 -1.66251108e-01  3.38489383e-01]]

  [[ 1.28168449e-01 -1.28784582e-01  9.01545212e-02  2.47425407e-01
     6.74003884e-02 -2.24423975e-01  1.61008254e-01 -6.80095181e-02
    -2.39660099e-01 -1.52761256e-02  2.04205826e-01  8.30689147e-02
    -7.82472938e-02 -8.62641856e-02  3.87836643e-03 -6.57418743e-02]
   [ 8.96716416e-02  2.08121054e-02  5.76199107e-02  2.99321979e-01
    -6.59745157e-01 -2.01797679e-01 -2.50094454e-03 -1.28403604e-02
    -1.68670435e-02  1.91226587e-01  2.91788846e-01 -2.25400478e-01
    -1.14166789e-01 -9.79920663e-03 -2.30757624e-01  7.82256126e-02]
   [-3.63635086e-02 -2.42192790e-01 -3.23555261e-01  4.33683842e-01
    -6.65351927e-01  2.37000033e-01 -2.98554171e-02  1.36642709e-01
    -2.96314836e-01 -1.75708741e-01 -2.74309933e-01 -1.06237911e-01
    -4.00842875e-01  6.92586973e-02 -3.63543510e-01 -2.74545163e-01]
   [ 5.89881204e-02 -1.09007843e-01 -9.04451385e-02  2.10678890e-01
    -6.36309087e-01 -9.56529900e-02  1.03922851e-01 -8.93982723e-02
    -1.74969196e-01  1.25499710e-01 -1.10285744e-01 -3.00894529e-02
    -6.63970560e-02 -1.49563894e-01 -3.37117851e-01 -1.51499271e-01]
   [ 3.17884237e-02 -1.67891413e-01  1.29568279e-01  2.42104307e-01
     6.75098151e-02 -1.91049203e-01  1.59155011e-01 -5.20047024e-02
    -1.98531479e-01  1.08156190e-03  1.31493390e-01  9.88680273e-02
    -1.46295786e-01 -5.69361597e-02  4.09738310e-02 -3.36001590e-02]
   [-1.36565015e-01  3.83149713e-01  1.27870636e-03 -3.76230516e-02
    -4.17763293e-01  1.37154967e-01 -6.88177049e-02  2.64342991e-03
     7.27369606e-01  8.30119941e-03  2.19385579e-01 -7.79540986e-02
     3.50266427e-01  2.04504058e-01 -1.65336639e-01  1.88376471e-01]]

  [[ 7.07666427e-02  4.76923734e-02  1.72771066e-01  2.86446869e-01
     1.42622977e-01 -8.87092203e-02  5.62247112e-02  4.83222655e-04
    -2.44366691e-01  1.05402051e-02  2.25883454e-01  4.08831798e-02
    -2.42365506e-02 -1.40301213e-01  1.11618780e-01  2.94434726e-02]
   [-3.06773037e-02  2.44199440e-01 -1.36236260e-02  3.15275133e-01
    -6.22697771e-01 -5.64657412e-02 -7.88302254e-03 -1.58453554e-01
    -1.34574026e-01  2.60457873e-01  2.07925066e-01 -2.14878634e-01
     1.88225001e-01 -9.45925433e-03 -3.84919256e-01 -6.42946572e-04]
   [ 6.69761971e-02 -2.45765429e-02 -1.02051541e-01  5.29484928e-01
    -8.02383840e-01  1.93274453e-01 -4.87611331e-02  5.10007143e-02
    -3.65001172e-01  7.08149523e-02 -1.42039895e-01 -1.01838514e-01
    -7.35436901e-02 -2.79790424e-02 -2.54723251e-01 -2.91985899e-01]
   [ 7.48925433e-02  2.32803095e-02  8.30489323e-02  2.06961393e-01
    -5.47564507e-01 -2.29246989e-01 -5.20855002e-02  1.56683680e-02
    -1.44078046e-01  8.70042667e-02 -1.04483636e-02 -1.14143871e-01
     7.98455402e-02 -2.78151155e-01 -2.94573873e-01 -7.24969953e-02]
   [ 1.34305641e-01 -1.24250762e-01  1.66298434e-01  1.76219001e-01
     4.38952148e-02 -2.20032752e-01  1.11609146e-01 -1.04209837e-02
    -1.25709251e-01 -7.23407641e-02  2.59698760e-02  1.41402021e-01
    -9.38642994e-02 -2.02429011e-01  1.81512181e-02 -1.29512936e-01]
   [-3.03429037e-01  2.95764446e-01  1.83325708e-01 -5.91799282e-02
    -4.14604247e-01  9.03613567e-02  2.01720878e-01  4.25799601e-02
     6.38127446e-01 -1.87043305e-02  7.82513320e-02 -2.04423010e-01
     5.46107948e-01  1.65484294e-01 -6.03335761e-02  2.31773481e-01]]

  [[ 1.39312238e-01  9.22567397e-02  8.08116719e-02  2.60000974e-01
     1.35992974e-01 -8.54400322e-02  9.13782790e-02 -1.36986211e-01
    -2.93701410e-01  1.81928679e-01  2.10341722e-01 -7.03585967e-02
    -2.75307316e-02 -1.32994130e-01  3.13397050e-02 -2.66033038e-03]
   [-7.63655873e-03  3.23867977e-01  1.66124910e-01  1.87908575e-01
    -7.41358876e-01 -2.01218158e-01 -6.30194694e-02 -2.14285374e-01
    -4.81417682e-03  1.62881792e-01  1.43232822e-01 -2.00054482e-01
     3.07883799e-01 -1.85453013e-01 -2.57322133e-01 -5.57539575e-02]
   [-1.05304465e-01  1.03474461e-01  8.25363472e-02  3.62978727e-01
    -7.85735130e-01 -1.83228515e-02  8.38257074e-02  3.40958238e-02
    -2.26858214e-01  1.58910938e-02 -8.63016993e-02 -1.30383283e-01
     4.06493172e-02 -8.25148150e-02 -3.84685904e-01 -4.31081414e-01]
   [ 5.60723431e-02  1.17408007e-01  1.14967920e-01  2.01784700e-01
    -6.98215425e-01 -1.60292581e-01 -1.37492381e-02 -1.32509381e-01
    -1.62947297e-01  1.18698843e-01  3.31830466e-03 -1.70550674e-01
     1.55780926e-01 -1.80610746e-01 -2.56645381e-01 -1.45603433e-01]
   [ 2.45143697e-01 -4.35077287e-02  2.60898136e-02  1.85498551e-01
    -2.21765768e-02 -6.24726675e-02  2.94220466e-02  4.46143374e-02
    -2.50547588e-01 -7.41772307e-03  1.48722455e-01  5.90800643e-02
    -7.81242400e-02 -6.92543834e-02  3.74916233e-02 -1.37340575e-01]
   [-5.19000709e-01  3.02937090e-01  3.33105832e-01 -1.48518279e-01
    -5.57045817e-01 -2.16448441e-01  3.03139836e-01 -4.34055999e-02
     7.54237354e-01  3.80777940e-02  1.88698649e-01 -1.07827432e-01
     6.26269639e-01 -8.92643109e-02 -2.54193902e-01  1.35619655e-01]]]]
le_net5/conv2d_1/bias:0
(16,)
[-0.1746277   0.13920431  0.09296105 -0.03342741 -0.12089558 -0.11726557
  0.06649975  0.06389958  0.25482234  0.11483681  0.18881588  0.1986237
  0.15479216  0.03327852  0.07080537  0.12879728]
le_net5/dense/kernel:0
(400, 120)
[[-9.07150581e-02  8.34981352e-02  2.45165527e-01 -1.08168796e-01
  -2.14637876e-01  2.23751128e-01  5.99628799e-02 -7.20970750e-01
  -2.07158014e-01 -3.47416282e-01  3.14401895e-01 -2.10245177e-01
  -1.50380880e-02  1.58099651e-01  4.03489172e-01  6.90199807e-02
  -3.93534228e-02  2.76403040e-01  1.42775491e-01 -1.27282724e-01
  -9.98932645e-02 -3.13065678e-01  1.77569129e-02  3.66744280e-01
  -3.52273166e-01  1.84729055e-01  5.08477151e-01  3.18440706e-01
   2.68912345e-01 -4.68545914e-01 -2.79937595e-01 -5.32944798e-01
   3.10877841e-02  1.47053763e-01  1.31429568e-01  5.01693487e-02
  -3.12272012e-01  1.63383171e-01  1.55186877e-01 -4.99389432e-02
  -1.93861276e-01 -4.72445518e-01 -5.46697557e-01  2.58730024e-01
  -4.16394532e-01 -6.25470757e-01 -4.57908623e-02  1.20406650e-01
  -3.31178084e-02 -2.09267527e-01  4.87403274e-01  3.04312974e-01
   1.58385515e-01 -9.22620222e-02  1.34442553e-01  3.62670898e-01
   3.38970542e-01 -3.81456316e-01  6.08610734e-02 -7.41161555e-02
   1.99779138e-01 -5.82561716e-02 -9.39470679e-02 -3.69161755e-01
  -3.70001607e-02 -4.15565699e-01 -3.55128527e-01 -1.71362013e-01
   1.44951344e-01  7.71419182e-02 -3.81851882e-01 -1.01700947e-01
  -3.90882045e-02  5.24997234e-01  3.61288160e-01  1.87689736e-01
  -1.24592751e-01 -5.20024419e-01 -2.20259756e-01 -2.16963589e-01
  -3.39817524e-01 -5.41084409e-01 -2.51536816e-01 -3.03027928e-01
  -3.12754661e-01  4.94099617e-01  1.39534846e-01 -4.76442218e-01
   1.65199742e-01 -2.84942627e-01 -2.63860822e-01  1.29399776e-01
  -3.64799708e-01 -3.71638057e-03  3.14116152e-03  2.30506763e-01
   3.30351591e-01 -1.71665940e-02 -2.57448945e-02 -4.42369074e-01
  -7.61035264e-01 -2.53202915e-01  1.38213649e-01 -7.22050548e-01
  -2.16874421e-01 -3.70883942e-01  4.00941521e-01 -2.12554365e-01
  -7.02518597e-02 -2.73007244e-01 -8.82386342e-02  5.42536490e-02
   4.33857024e-01  9.05490369e-02 -6.16994947e-02  4.74490114e-02
   1.27823889e-01 -1.79099575e-01  6.58648536e-02 -1.32793650e-01]
 [-1.08585740e-02 -2.65321345e-03  8.82650241e-02  1.23970307e-01
   1.49885386e-01 -1.56542405e-01 -5.11299074e-02 -2.73815066e-01
  -3.98156255e-01 -2.69204050e-01  4.76609021e-01 -2.05097541e-01
   3.49558443e-02 -3.53187442e-01  2.35362172e-01  2.48386115e-02
  -4.73351270e-01  6.48644641e-02 -2.86149587e-02 -4.17049080e-02
  -2.39268765e-01 -3.05696249e-01  1.20570846e-02 -9.58741978e-02
  -4.33009177e-01 -7.82944635e-02  3.82312745e-01  5.81196845e-02
  -3.37354690e-02  7.43128918e-03 -2.86453962e-01  1.01772822e-01
  -3.93849723e-02  2.56574392e-01 -3.81587595e-02  2.29072720e-01
  -3.56158733e-01  1.51303545e-01  1.65183395e-01  3.28651339e-01
  -3.85286838e-01 -9.75096449e-02 -2.72299945e-01  3.97692248e-02
   1.18016778e-02 -2.19933808e-01 -1.26756877e-01  3.84154141e-01
  -2.09960774e-01 -2.37263262e-01  5.08648828e-02  3.19901705e-01
   4.05875623e-01  9.53073055e-02  1.98462665e-01 -2.05145106e-02
   1.52365997e-01 -3.72183770e-01  1.66369956e-02 -9.69773903e-02
   5.40283024e-01 -3.14527035e-01  5.82312085e-02 -4.84223180e-02
  -9.90351737e-02 -2.74023622e-01  8.29048008e-02 -2.92262465e-01
   1.26911208e-01  4.05772328e-01 -4.46537912e-01  1.10141106e-01
  -6.35998230e-03  1.71062142e-01  1.72621049e-02  4.29607987e-01
  -8.72628987e-02 -5.34672365e-02 -1.43222660e-01 -5.96383512e-02
  -5.39135337e-01 -3.81122261e-01  8.22974294e-02 -1.64596260e-01
   6.98940456e-02 -1.47651419e-01 -2.44882226e-01 -2.14416429e-01
  -2.19369903e-01  5.15115149e-02 -3.53459641e-02 -1.50540173e-01
  -1.53446898e-01  1.49223566e-01  1.64452270e-01 -1.57417506e-01
   2.44746283e-02  1.54114589e-02 -4.89791483e-01 -2.46752918e-01
  -4.00018878e-03 -1.12665832e-01  9.06778723e-02 -6.18211739e-02
  -7.75981396e-02  8.11044648e-02 -1.23364531e-01 -1.62263751e-01
  -2.75416285e-01  3.05230543e-02 -1.40812900e-02 -3.75294350e-02
  -6.34383634e-02 -2.97835711e-02 -6.12238050e-02  4.81064953e-02
   7.94777274e-02  2.35035449e-01  1.60417780e-01 -3.48683596e-01]
 [-4.52512838e-02  5.48086911e-02  2.55247802e-01 -9.11468582e-04
   5.80985565e-03  3.80997472e-02  2.35299572e-01 -1.64166659e-01
  -7.56370127e-02 -2.21478045e-01  3.57126713e-01  3.70600633e-02
  -4.60449941e-02 -2.10972100e-01  1.45742506e-01  1.03862405e-01
  -1.10499360e-01  1.50754273e-01  1.14214592e-01  1.15684673e-01
  -1.31319746e-01 -3.69385123e-01  1.39042929e-01 -2.10976258e-01
  -3.19742382e-01  8.27340707e-02  4.21463460e-01  2.46438131e-01
  -1.44728478e-02 -1.10662721e-01 -3.09893698e-01  1.49837136e-01
  -1.80859655e-01  4.21117157e-01  1.98811010e-01  3.59089337e-02
  -3.57093751e-01  1.46826595e-01 -2.15490200e-02  6.84253573e-02
  -3.01660538e-01 -5.72621673e-02 -2.03895420e-01  1.33890793e-01
  -2.09020063e-01 -2.84963429e-01  2.77165007e-02  4.92100954e-01
  -9.44825038e-02 -3.24734330e-01  1.71418279e-01  3.73601854e-01
   4.76807356e-01  7.08183274e-02  2.28394136e-01  1.01435207e-01
   2.62151539e-01 -2.93544769e-01 -5.71321324e-02 -2.89618790e-01
   3.56802851e-01 -5.30429542e-01 -1.22229241e-01  9.08030346e-02
   1.91738099e-01 -1.93109922e-02 -7.26019517e-02 -1.80948883e-01
   1.76689625e-01  3.66344638e-02 -2.16952533e-01 -7.97803402e-02
  -5.06568793e-03 -1.43432662e-01 -5.62532023e-02  1.36171281e-01
  -3.78174722e-01 -3.34086008e-02 -1.77642211e-01 -1.57612801e-01
  -4.03201371e-01 -1.87110797e-01  1.26684576e-01  3.14074499e-03
   1.02758538e-02  2.65988614e-03 -8.23131725e-02 -2.11329386e-01
  -6.73502684e-03 -1.49308704e-02 -2.46023506e-01 -4.33479697e-02
  -2.00945064e-01  1.32233575e-01  1.15482539e-01 -8.13048705e-02
   2.28585735e-01 -1.18070751e-01 -2.09754407e-01 -1.91969678e-01
   2.55897105e-01 -2.96481013e-01  1.66182622e-01 -6.32192418e-02
   3.99199240e-02  8.74845833e-02 -4.24313731e-02 -1.56189248e-01
  -2.19864011e-01  2.11695388e-01 -4.08411510e-02 -3.32824647e-01
  -9.77519974e-02 -7.22108632e-02 -5.98058291e-02  2.55756248e-02
   2.20668212e-01  3.11776519e-01  2.73943871e-01 -3.98600012e-01]
 [ 3.17093655e-02  1.48085505e-01  1.10065997e-01 -1.44817140e-02
   1.04415633e-01  6.85496926e-02 -1.51938900e-01 -3.28579724e-01
  -3.87160555e-02 -4.18238789e-01  1.66351393e-01 -3.35764736e-01
   1.36310294e-01 -3.30825627e-01  2.26271465e-01 -1.09340744e-02
  -2.33735606e-01  2.16437489e-01 -1.16657019e-01  9.46692377e-02
   4.43903394e-02  5.47943078e-02 -1.94691554e-01 -1.54644204e-02
  -1.15407340e-01  1.43517721e-02  3.01394761e-01  1.60523966e-01
   8.69987383e-02 -3.43913406e-01 -5.13856947e-01 -1.53112262e-01
  -1.22449860e-01  4.07077610e-01  1.95413798e-01  3.56559865e-02
  -3.14151764e-01  1.49964124e-01  3.09540406e-02 -3.05535235e-02
  -3.66630793e-01 -4.31544393e-01 -2.26074755e-01 -4.61697504e-02
  -1.85458213e-01 -4.07517433e-01 -2.26484891e-02  3.29138160e-01
  -8.46529230e-02 -3.41094494e-01  1.14290901e-01  2.38495678e-01
   2.00011238e-01  9.30068344e-02  1.75442621e-01 -8.98401588e-02
   1.14484407e-01 -5.01533151e-01 -1.73027888e-01 -7.26326168e-01
   1.11462541e-01 -2.94365793e-01  1.18120581e-01  7.22018853e-02
   2.02587713e-02  7.69548789e-02 -1.21418096e-01 -1.34604275e-01
  -2.97911823e-01  4.54999208e-02 -1.25069723e-01 -7.08809793e-02
   1.41882449e-01  3.68963212e-01  3.08473438e-01  1.20768420e-01
  -3.58601600e-01 -6.64938331e-01 -4.55369316e-02 -1.36031091e-01
  -2.95524836e-01 -3.24520558e-01  6.10748585e-03  1.65405527e-01
  -3.49966548e-02 -1.21154813e-02 -7.86540285e-02 -5.49535871e-01
   3.79345156e-02 -1.85810626e-01 -1.62054345e-01 -4.75562401e-02
  -3.47497553e-01  1.21795096e-01  1.55603886e-01  6.97764680e-02
   1.40256867e-01 -2.72706479e-01 -2.88224101e-01 -2.20110625e-01
  -3.44448239e-01 -2.82641560e-01  2.36325860e-01 -3.43653172e-01
  -3.71583313e-01  3.57912704e-02  7.16123357e-02 -2.00727239e-01
  -2.16542616e-01  6.30294979e-02  4.50797975e-02 -1.50554460e-02
   2.13654354e-01 -1.92682538e-02  5.18109538e-02 -2.55022526e-01
   2.89279670e-01  1.96051091e-01  1.41296566e-01 -5.00292003e-01]
 [ 1.94068830e-02  3.27260435e-01  1.13736734e-01  8.19342658e-02
  -3.72515060e-02  2.52354518e-03 -2.29976967e-01 -6.02924287e-01
  -1.06524387e-02 -4.86487478e-01  2.10210145e-01 -1.00685716e-01
   2.60411024e-01  1.13074474e-01  2.82122165e-01  1.13537729e-01
  -2.77394593e-01  2.06075221e-01 -3.28581370e-02  1.56875074e-01
   1.70546278e-01 -2.14244321e-01 -1.83121994e-01  2.71197110e-01
  -5.13585620e-02  1.61192104e-01  8.82114545e-02 -1.12144180e-01
   1.12210531e-02 -2.43090138e-01 -1.81224838e-01 -2.37089962e-01
   8.43802467e-02  5.92797361e-02  6.24722894e-03  2.24254608e-01
  -2.28713512e-01  2.40302637e-01  9.33664888e-02  7.37074539e-02
  -1.16567060e-01 -1.96328819e-01 -6.37534082e-01 -4.84354496e-02
   3.79435234e-02 -4.22489166e-01  4.54053320e-02 -1.00534521e-01
  -1.04197018e-01 -1.76804364e-01  1.44473180e-01  1.12892568e-01
  -6.20774983e-04 -1.21362709e-01 -3.94970030e-02  2.86457330e-01
   3.22730392e-01 -6.80766284e-01 -2.91230977e-01 -1.42469615e-01
   1.22997180e-01  1.70380786e-01 -1.78665236e-01 -3.64809602e-01
  -3.34708206e-02 -1.91659387e-02 -1.90835729e-01 -3.63478303e-01
  -4.71043587e-03  1.96812034e-01 -4.66740847e-01 -7.69405067e-02
  -1.40869273e-02  3.48958254e-01  3.66834551e-01  1.09073609e-01
  -4.89924043e-01 -4.55302924e-01  2.50248052e-02  3.07986617e-01
  -1.41299114e-01 -5.96081495e-01 -2.15105206e-01 -2.02343926e-01
  -7.61025324e-02  1.72708973e-01 -1.77802686e-02 -5.27267277e-01
  -6.78028464e-02 -1.03619754e-01 -8.18345249e-02  5.59287369e-02
  -2.53999949e-01  9.58817750e-02  1.21417657e-01  2.32424095e-01
   1.20669253e-01 -2.33791426e-01  1.37265459e-01 -1.14253201e-01
  -6.62258089e-01 -6.88352883e-02  2.68137962e-01 -4.45926815e-01
  -9.10327882e-02 -1.25474826e-01  7.92934895e-02 -1.31024763e-01
  -1.58717990e-01 -2.94814110e-01  1.96387112e-01  2.46378452e-01
   5.43341339e-01  5.38284890e-02  2.89240219e-02 -1.38507366e-01
   8.44800770e-02 -2.45824084e-01  1.33895367e-01  1.31038040e-01]
 [-6.76859692e-02  1.24825798e-01  2.15552613e-01 -5.78548983e-02
  -1.54543251e-01  1.04652792e-01 -1.40904263e-01 -4.36519325e-01
  -3.02824497e-01 -3.88674885e-01  1.06541924e-01 -1.50463775e-01
   8.26397985e-02 -1.37285516e-01  2.29053959e-01  1.11355625e-01
  -9.46954563e-02  3.19757611e-02  8.16293135e-02 -1.19790182e-01
  -6.67368993e-02 -1.32524177e-01 -1.16472386e-01  4.77553718e-02
  -3.02870482e-01  1.64085701e-02  2.01530948e-01  2.41792366e-01
   1.04303993e-01 -1.95548832e-01 -1.54178232e-01 -2.76403099e-01
   7.23101245e-03  1.29495859e-01  5.10160252e-02  1.81662485e-01
  -3.10997367e-01  2.35626712e-01 -4.43171673e-02  1.91715598e-01
  -8.95422176e-02 -1.93879828e-01 -5.34905791e-01  7.44093955e-02
  -1.30232856e-01 -4.84292686e-01 -1.29501641e-01  1.60991937e-01
  -4.19607051e-02 -1.30666509e-01  1.91656128e-01  1.49657160e-01
   1.23310320e-01 -5.35901040e-02 -2.32214853e-02  2.19827399e-01
   4.31086905e-02 -4.64357466e-01 -1.49832303e-02 -1.30400315e-01
   8.06372389e-02 -2.62999488e-03 -4.49701585e-02 -1.37714610e-01
   8.69626477e-02 -1.52661070e-01 -7.38514289e-02 -2.84414500e-01
   1.29674658e-01  1.16125241e-01 -2.26108193e-01 -9.01169553e-02
   1.28317207e-01  2.44120866e-01  1.58094719e-01  2.21721321e-01
  -2.04253629e-01 -2.61084974e-01 -1.18912809e-01 -5.61128079e-04
  -2.44250298e-01 -3.90224040e-01 -2.85210572e-02 -1.56175941e-01
  -1.01198196e-01  2.44662881e-01  3.26077491e-02 -5.15780747e-01
   3.21913441e-03 -1.42651141e-01 -2.38756001e-01 -6.98766634e-02
  -2.77832389e-01  4.20999564e-02  1.58119962e-01  4.92676115e-03
   1.26943260e-01 -1.03071697e-01  7.18186498e-02 -1.58183053e-01
  -4.75822806e-01 -1.04194060e-01  5.37137985e-02 -4.04597223e-01
  -8.49213898e-02 -4.17726524e-02  1.60688803e-01 -5.35903499e-02
  -4.42560390e-02 -1.71179056e-01  4.10882989e-03  5.99256977e-02
   3.59884888e-01  4.05626791e-03  1.37507515e-02  3.63202021e-02
   1.61610633e-01 -9.01235789e-02  1.07058175e-01 -3.53778601e-02]
 [-1.94480829e-02  1.89285815e-01  1.72403052e-01  3.12875360e-02
   9.00390670e-02  6.90734908e-02  1.67452261e-01 -3.23740333e-01
  -5.70121780e-03 -3.07846844e-01  3.93745899e-01 -1.10491745e-01
  -4.17326316e-02 -1.80972368e-01  4.04285640e-01 -1.44368216e-01
  -1.46222979e-01  2.53200620e-01  3.74954529e-02  1.64354339e-01
  -8.04422274e-02 -3.93610805e-01  7.80110881e-02 -7.95657001e-03
  -2.97446221e-01  1.65791675e-01  4.04401571e-01  1.83119193e-01
   1.03006274e-01 -2.81104743e-01 -3.54701847e-01  5.24684973e-02
  -2.22811103e-02  3.35342079e-01  1.47833854e-01  1.98904410e-01
  -8.23274553e-02  2.70386398e-01  9.62323025e-02 -1.31811753e-01
  -1.99681103e-01 -7.17305169e-02 -3.51636887e-01  1.63328975e-01
  -1.91387355e-01 -4.13802236e-01 -8.00628662e-02  3.71102005e-01
  -2.32378408e-01 -3.38556260e-01  1.35300651e-01  3.29818666e-01
   1.63266882e-01  1.67597421e-02  2.34244198e-01  3.03707600e-01
   3.66961151e-01 -3.17642182e-01 -1.27134129e-01 -3.09097737e-01
   1.33374050e-01 -4.44238216e-01 -1.68581400e-02 -1.99613258e-01
   6.78580627e-02 -2.13285983e-01 -9.06823277e-02 -2.72549599e-01
  -4.85925265e-02  8.70933160e-02 -2.38124147e-01  1.20558001e-01
   1.60816133e-01  8.98899212e-02  2.61834566e-03  1.11185282e-01
  -1.85074791e-01 -1.38435543e-01 -9.45918337e-02 -3.21994573e-01
  -2.38029361e-01 -2.53059626e-01  3.95034961e-02 -1.01598509e-01
  -2.22701117e-01  1.34681374e-01  6.74100891e-02 -3.14569771e-01
   2.70446427e-02 -1.86367869e-01 -2.90265262e-01 -5.34166694e-02
  -1.81466505e-01 -9.64445993e-03  2.55061299e-01  2.45972797e-01
   2.35721424e-01 -4.35552672e-02 -1.36483103e-01 -1.91499382e-01
   7.25801662e-02 -3.88048947e-01  1.53087929e-01 -2.08601251e-01
   5.03478684e-02  1.35987595e-01  7.92161375e-02 -2.27461666e-01
  -1.54848456e-01  1.48065895e-01  1.27135232e-01 -1.37272298e-01
  -1.79922604e-03  1.89806014e-01  1.23178877e-01 -1.17382295e-01
   1.86553061e-01  1.19027801e-01  1.99244946e-01 -1.30585134e-01]
 [-1.16079897e-01  9.52033848e-02  1.27335578e-01 -5.40518425e-02
  -3.78411375e-02  1.01760730e-01 -1.83043674e-01 -4.28399831e-01
  -4.08388853e-01 -4.80206043e-01  3.84620070e-01 -1.60000354e-01
  -5.42543046e-02  3.27466466e-02  2.01678663e-01 -1.25497729e-01
  -2.93096602e-01  1.88992515e-01  7.99401663e-04 -1.26739994e-01
  -1.01249322e-01 -3.24671566e-01 -3.10716838e-01  3.01576227e-01
  -3.96254927e-01 -2.71293502e-02  1.35694012e-01  2.08693698e-01
   7.47479200e-02 -4.23645377e-01 -2.47018710e-01 -2.50650257e-01
   4.21542712e-02  3.02181989e-01  2.39197072e-02  1.34932473e-01
  -4.52821851e-01  1.12459742e-01  8.55999067e-02  2.67879337e-01
  -3.52078646e-01 -6.07451499e-02 -3.42523634e-01  1.38083816e-01
  -6.84267981e-03 -4.93165344e-01 -2.72579134e-01  1.46686018e-01
  -2.10116915e-02 -6.76867217e-02  4.44742739e-02  2.84541607e-01
   2.52046257e-01  1.35997981e-01 -2.53423210e-02  4.38426256e-01
   3.47259700e-01 -4.61297333e-01 -6.51757643e-02 -1.72398522e-01
   4.01740283e-01 -3.14595908e-01 -7.97453895e-02 -2.29876950e-01
   7.80368075e-02 -2.66663462e-01 -1.34901591e-02 -2.01586559e-01
  -1.16270594e-01  2.90154606e-01 -4.58390594e-01  1.42746232e-03
  -4.78625372e-02  3.66749227e-01  1.12229444e-01  3.03428233e-01
  -1.62207559e-01 -3.55964780e-01 -3.40165138e-01  4.35697585e-02
  -3.58420670e-01 -3.57077539e-01 -5.14355227e-02 -1.41365469e-01
  -5.54914512e-02  2.57140517e-01 -1.63276374e-01 -5.30777156e-01
  -1.47296086e-01  1.08376378e-02 -1.88571274e-01  5.21917380e-02
  -3.07643950e-01  4.24689194e-03 -1.61139071e-02  1.34653166e-01
   1.02918781e-01  1.06242366e-01 -5.35271224e-03 -2.30391204e-01
  -3.68617892e-01 -2.31856570e-01  1.04654618e-01 -3.48260611e-01
  -6.44224435e-02  1.52092539e-02  5.62975323e-03 -1.23505130e-01
  -7.05878362e-02 -9.77910012e-02 -3.79688889e-02 -4.80731726e-02
   2.68540293e-01  9.10665095e-02 -2.76138093e-02 -5.21176122e-02
   8.39055628e-02 -1.05461448e-01  1.63287207e-01 -5.83432764e-02]
 [ 1.83145627e-01  1.15479432e-01  2.12013587e-01  1.31365299e-01
   1.50288999e-01  8.96638334e-02  1.30554557e-01  1.07791975e-01
  -7.97442421e-02  3.41229923e-02  8.84601325e-02 -6.78166673e-02
  -1.52072698e-01 -2.16161489e-01  1.18592761e-01 -1.58164408e-02
  -1.26419276e-01  9.10110027e-02 -6.63227290e-02  4.66984287e-02
  -1.93324149e-01  3.03647798e-02 -1.80196743e-02 -1.02696665e-01
  -2.93836623e-01 -7.47332945e-02  3.58173192e-01  1.86175540e-01
  -1.02715284e-01 -1.08627630e-02 -2.11033985e-01  1.71825141e-01
  -1.50992259e-01  1.32497042e-01  1.69026166e-01  8.81236047e-03
  -2.46998742e-01  1.01324106e-02 -1.15467198e-02  5.55875450e-02
  -1.65442407e-01 -6.28357902e-02  9.06089395e-02 -8.69330615e-02
   1.74501557e-02  1.13897935e-01  1.06351256e-01  3.32917809e-01
  -1.96333036e-01 -1.13545790e-01 -3.90429562e-03  2.39779606e-01
   2.90252775e-01  2.79613696e-02  2.38718972e-01 -1.50884911e-01
  -1.57370046e-01 -2.26969853e-01 -7.80004263e-02 -1.22855365e-01
   3.76655400e-01 -2.05817074e-01  1.71253487e-01  2.01873928e-01
   8.70680064e-02  5.81417605e-02  1.05908468e-01 -3.60859275e-01
   1.61707640e-01  2.34034315e-01 -2.36547172e-01 -4.15306836e-02
   2.29935616e-01 -1.22463383e-01 -1.22700900e-01  1.53501704e-01
  -2.43571103e-01 -1.53451543e-02 -3.76451351e-02 -8.88038501e-02
  -1.92341849e-01  8.81116167e-02  1.56455919e-01  9.24068093e-02
   1.87161922e-01 -1.21389188e-01 -1.54129207e-01  4.65036519e-02
  -9.31246430e-02 -5.80424443e-02  1.13844156e-01 -2.44760022e-01
   8.58882889e-02  1.92107201e-01  1.37021169e-01  9.24178772e-03
   1.53561383e-01  4.31959741e-02 -3.60269248e-01 -1.68181792e-01
   1.07491717e-01 -6.08122572e-02  6.46300167e-02  1.36538222e-01
  -2.95623280e-02  3.34646583e-01  2.96580940e-02 -1.59182161e-01
  -1.81024015e-01  4.83815260e-02 -6.12161942e-02 -7.25137219e-02
  -8.26900452e-02  5.77007905e-02 -6.40822127e-02 -9.32468195e-03
   1.70342982e-01  2.40192220e-01  2.29585946e-01 -3.47288489e-01]
 [-4.59830314e-02  2.54517794e-02  2.25680694e-01  2.69114226e-02
   3.18027772e-02  2.34886203e-02 -1.22998029e-01 -1.78050101e-01
  -3.21775347e-01 -4.05409664e-01  4.65691298e-01 -1.84925899e-01
  -2.21322522e-01 -1.33012831e-01  2.25644231e-01  8.18563625e-02
  -5.42225957e-01  1.52763352e-01  2.05352996e-02  9.36712138e-03
  -7.66065866e-02 -3.16835791e-01 -7.21368343e-02  1.72824025e-01
  -4.14038301e-01 -2.81138401e-02  2.95021147e-01  1.23557106e-01
   4.16395701e-02 -4.39959645e-01 -1.97271645e-01 -2.35244781e-01
  -9.45780054e-02  4.07954693e-01  1.21154241e-01  1.83955878e-01
  -4.18916851e-01  2.20963389e-01  1.84848383e-02  3.70480269e-01
  -6.33325219e-01 -1.80439875e-01 -3.89795572e-01  2.55343407e-01
  -6.09992109e-02 -3.14254731e-01 -1.41282663e-01  4.11054641e-01
  -1.34004414e-01 -1.61324039e-01  1.03492394e-01  3.78715008e-01
   4.30882663e-01  2.80850172e-01  4.62103523e-02  1.89564452e-01
   4.40467030e-01 -5.20149112e-01  2.27276906e-02 -3.93425614e-01
   7.40423143e-01 -3.95614505e-01 -4.72686775e-02 -2.03948021e-01
  -2.74984371e-02 -4.35578704e-01 -3.53004374e-02 -2.08361372e-01
  -1.34346232e-01  5.16928613e-01 -5.94408512e-01  4.51808162e-02
  -6.23895787e-02  2.99578875e-01  1.19926430e-01  5.00826120e-01
  -4.42511439e-01 -3.35052133e-01 -3.23779315e-01  2.26959884e-02
  -5.36443651e-01 -3.98174226e-01 -1.76986843e-01 -3.82017821e-01
  -9.08289403e-02 -1.16064698e-01 -2.20746741e-01 -4.44463730e-01
  -4.18106019e-01  2.32291240e-02 -6.70984089e-02 -1.64631203e-01
  -2.17941806e-01  9.18593854e-02  5.73902130e-02  2.96306629e-02
   1.07185200e-01 -1.42892441e-02 -4.10195589e-01 -2.73958981e-01
  -1.36866257e-01 -3.92143160e-01  2.07846582e-01 -3.09277058e-01
  -2.71233823e-03  1.43726900e-01 -1.28169090e-01 -3.03634435e-01
  -9.23517421e-02 -2.05699913e-02  1.26545444e-01 -2.14105964e-01
   1.28807306e-01 -4.50856052e-02  2.01332029e-02 -1.27013013e-01
   7.17367455e-02  2.00483426e-01  2.70162344e-01 -3.61499429e-01]
 [ 8.53549503e-03 -1.11372536e-02  3.10400963e-01  7.39391567e-03
   9.41844359e-02  6.49702270e-03  4.88514006e-02 -1.15516767e-01
  -2.10996479e-01 -2.09103256e-01  3.27656299e-01 -6.00182116e-02
  -2.06435248e-01 -2.08317056e-01  1.81715041e-01 -1.42982304e-01
  -3.19722503e-01  1.05959147e-01 -3.52363698e-02  3.96991856e-02
  -1.83588058e-01 -2.87545204e-01  1.50932148e-01 -1.76908702e-01
  -3.10958982e-01  1.03878109e-02  2.82621473e-01  4.43784930e-02
   4.02167160e-03 -7.06854463e-02 -2.09760398e-01  1.02191500e-01
  -1.28472708e-02  4.35988784e-01  1.46115068e-02  8.00185427e-02
  -3.47820312e-01  1.30741755e-02  1.14698395e-01  3.28593552e-02
  -3.09364200e-01  2.50449348e-02 -1.28967971e-01  1.83165014e-01
   8.27053655e-03 -6.64260983e-02 -2.73812264e-02  5.02892017e-01
  -2.33643278e-01 -2.37797186e-01  2.34422553e-02  4.29599941e-01
   4.42896187e-01  8.27604905e-02  3.37852955e-01 -6.76889643e-02
   1.01144344e-01 -2.87984967e-01 -7.28893802e-02 -2.70094514e-01
   4.72463667e-01 -4.51348960e-01  3.89586226e-03  2.35049233e-01
   1.83082148e-01 -4.63788323e-02  6.54868409e-02 -2.10007191e-01
   2.41551343e-02  1.66422740e-01 -2.20205963e-01 -1.15532845e-01
   9.77985337e-02 -2.16981709e-01 -2.47672021e-01  3.67670149e-01
  -2.98942298e-01  5.52683547e-02 -1.89259604e-01 -2.36588120e-01
  -3.07323724e-01 -2.22646609e-01  1.49419978e-01 -1.69095889e-01
   1.09088011e-01 -1.56136706e-01 -5.41323982e-02 -2.87110269e-01
  -5.02408557e-02  1.56216696e-01 -1.28929943e-01 -1.34526059e-01
  -2.26510540e-01 -5.84025495e-03  1.80991456e-01 -1.83024555e-02
   1.09055929e-01 -8.79269615e-02 -4.58484679e-01 -1.36756808e-01
   1.43404439e-01 -3.67697924e-01  2.04305887e-01 -1.15905553e-02
  -2.86292494e-03  1.94221318e-01 -1.84592783e-01 -1.51590899e-01
  -4.60962728e-02  1.18229680e-01  6.21853881e-02 -3.33674461e-01
  -1.30878121e-01 -7.71398991e-02  6.62422739e-03 -1.04880355e-01
   6.14473745e-02  1.84343159e-01  2.29925677e-01 -3.37069273e-01]
 [ 2.52361655e-01  2.58757353e-01 -1.26309231e-01 -3.17331366e-02
  -3.82639259e-01 -2.63391525e-01 -8.50663520e-03  3.00810896e-02
   1.72281452e-02  4.20720987e-02 -5.83418198e-02 -1.35202393e-01
  -1.52461886e-01  1.13859205e-02  3.45402867e-01  1.13792516e-01
  -7.34115243e-02 -9.85314846e-02 -4.28494543e-01  2.41186008e-01
   1.59080476e-01  2.99299270e-01  2.02787742e-02 -3.67438458e-02
   4.52977344e-02 -8.58686790e-02 -5.28894179e-02  1.13452159e-01
   3.11656389e-02 -6.85293302e-02 -4.73016143e-01 -2.83751547e-01
  -2.44754940e-01  3.65129203e-01  2.49528155e-01  3.14826727e-01
   1.62830874e-02  2.45519951e-01 -1.52685612e-01 -2.21777871e-01
  -1.98377058e-01 -5.19785166e-01  5.02970591e-02 -1.26787936e-02
   1.66701958e-01  5.14745563e-02  1.99690834e-01  1.10236235e-01
  -7.81147182e-02 -5.50866961e-01 -5.51136509e-02 -2.01696336e-01
   3.67033184e-02 -1.81373373e-01  2.11102143e-01 -9.62307304e-03
   1.17825620e-01 -1.72670335e-01 -5.08696772e-02 -1.81317255e-01
  -1.40676513e-01 -1.90620139e-01 -1.33415572e-02 -9.96165276e-02
  -6.26105368e-02  2.03813776e-01 -6.78249598e-02  1.82909921e-01
  -5.94723634e-02 -3.94098014e-02  2.22170219e-01  6.31972216e-03
   1.43030182e-01  2.40370989e-01  1.80944070e-01 -2.45065063e-01
  -3.61408979e-01 -1.82800904e-01  6.86043203e-02 -4.09294665e-02
   1.66927770e-01  1.09715611e-01  1.79146081e-01  2.03147724e-01
  -1.18678831e-01  1.06736124e-01 -2.47518897e-01 -5.18789142e-02
  -6.15966469e-02 -1.95051625e-01  3.78775448e-02  1.30599409e-01
  -2.45102882e-01  1.66266292e-01  3.84767234e-01  2.11847275e-02
  -2.26162955e-01 -2.48244092e-01 -1.17797464e-01 -1.38930038e-01
   5.77679742e-03 -1.27142146e-01  8.55664313e-02 -4.51884009e-02
  -2.62812108e-01 -2.27433983e-02 -4.82501872e-02 -7.32614845e-02
  -3.87268290e-02  1.00698203e-01 -3.40811998e-01 -2.43922085e-01
  -5.93137071e-02 -1.10899292e-01  4.05028462e-01 -2.24458799e-01
   2.81717367e-02  1.76514372e-01 -8.89862329e-02 -4.96375859e-01]
 [ 1.50224179e-01  1.76580638e-01  1.04893111e-01  9.73174050e-02
   8.07846189e-02 -1.88872874e-01  6.45306185e-02 -3.74757661e-03
  -1.53082207e-01 -1.18273757e-01  2.35336393e-01 -5.49445301e-02
  -1.14212453e-01 -4.84741747e-01  1.76043406e-01  7.84280803e-03
  -2.35231981e-01 -1.81635037e-01 -1.36788338e-01  1.60080120e-01
  -3.30195017e-02  2.75591202e-02  2.34669343e-01 -2.90348530e-01
  -2.14395612e-01 -1.91962630e-01  4.42179680e-01  7.38005862e-02
  -7.34818205e-02  3.20513874e-01 -3.18435192e-01  1.06852159e-01
  -7.07440227e-02  3.58010590e-01  9.40879509e-02  9.82769132e-02
  -3.78334612e-01  1.00761548e-01 -8.24180916e-02  1.65082753e-01
  -3.41871858e-01 -1.81549504e-01 -1.61599994e-01 -7.39755929e-02
  -7.54277334e-02 -3.19162905e-02 -6.48784563e-02  4.80212718e-01
  -1.24870531e-01 -4.71228898e-01  1.35952845e-01  3.12733054e-01
   5.55978775e-01  1.34682298e-01  3.15028995e-01 -2.24977762e-01
   1.09258123e-01 -2.95469344e-01  3.81515585e-02 -1.69267640e-01
   2.31770232e-01 -3.06420833e-01  5.79587556e-02  1.71931028e-01
   1.15413800e-01  8.29467608e-04  2.37135738e-01 -1.60875674e-02
   7.54615590e-02  1.05780616e-01 -1.42749026e-01 -4.11202619e-03
   8.76426697e-02 -1.07769057e-01 -4.85058241e-02  3.23356748e-01
  -2.92406976e-01  8.39960501e-02 -1.96891084e-01 -2.57666081e-01
  -3.68856400e-01 -1.00117922e-01  1.62011057e-01 -6.64533153e-02
   2.40511391e-02 -3.33245128e-01 -3.03444326e-01 -6.61530420e-02
  -3.21166009e-01 -2.15921644e-02 -2.28149742e-02 -2.66608596e-01
  -1.36054561e-01  7.86045380e-03  2.60540336e-01 -8.77029672e-02
  -6.84951991e-02  1.49886524e-02 -6.25453889e-01 -2.86720604e-01
   2.07250103e-01 -1.36172086e-01 -1.32033331e-02  2.69075390e-02
  -1.68111306e-02  3.02595675e-01 -8.73440132e-02 -2.33598262e-01
  -1.12233244e-01  1.07834756e-01 -4.40205038e-02 -4.89938527e-01
  -3.44600588e-01 -1.51485085e-01 -1.92275699e-02 -4.63628583e-02
   5.48551977e-02  2.03948021e-01  2.72997916e-01 -4.01194960e-01]
 [-9.41475667e-03  5.90460971e-02  2.35827584e-02 -4.49177250e-02
  -1.65316343e-01  9.62582678e-02 -1.97819009e-01 -4.67124522e-01
  -2.35552564e-01 -3.45808119e-01  1.47613361e-01 -4.66773808e-02
  -1.15796039e-02 -1.16959386e-01  1.10028900e-01 -1.30118459e-01
  -2.21190989e-01  7.34296292e-02 -7.66640157e-02 -1.74864307e-01
  -2.16659844e-01 -3.16036254e-01 -1.69897258e-01  2.04453081e-01
  -3.06860089e-01 -8.72163251e-02  6.79628998e-02  1.41579986e-01
   3.71725224e-02 -9.53211412e-02 -7.76120573e-02 -2.38123044e-01
  -7.75824189e-02  4.78720888e-02  7.83183649e-02  1.28197465e-02
  -2.07038954e-01  2.47265380e-02  7.17245266e-02  6.04856424e-02
  -2.86246240e-01 -7.31831789e-02 -4.20246601e-01 -1.20119169e-01
  -1.07354067e-01 -3.57966751e-01 -1.80356115e-01  1.66852504e-01
   9.95916650e-02 -1.19638145e-01  9.92459804e-02  2.86577553e-01
   1.63436607e-01 -9.15882364e-02 -8.33889097e-02  1.80287868e-01
   1.12253451e-03 -4.44285870e-01 -1.57277714e-02 -2.61038914e-02
   8.34691823e-02 -1.54706642e-01 -9.16337594e-02 -1.29038364e-01
   6.86014742e-02 -1.63285568e-01 -3.51061835e-03 -1.36836737e-01
   2.62268558e-02  1.85418069e-01 -3.28423500e-01  4.31557670e-02
  -4.62709442e-02  3.29482615e-01  1.68175593e-01  2.49951005e-01
  -1.94932804e-01 -2.31192529e-01 -2.03808263e-01  2.58305408e-02
  -2.39087969e-01 -4.84047711e-01  8.94308239e-02 -3.69733498e-02
  -1.18917003e-01  1.19844422e-01  1.33212022e-02 -3.32037628e-01
  -4.98270690e-02 -1.32683739e-01 -2.91842639e-01 -7.26967752e-02
  -3.00478131e-01 -2.91767828e-02 -4.49038893e-02 -3.95489065e-03
   6.48479536e-02 -7.60918781e-02 -8.15425590e-02 -3.66586484e-02
  -5.13323843e-01 -2.29130462e-01 -1.62871294e-02 -4.81409401e-01
  -1.37444720e-01  3.57074402e-02  7.15005770e-02 -9.44618881e-02
  -3.23499888e-02 -1.12786219e-02  2.36797589e-03  7.18499646e-02
   1.49380937e-01 -3.26502211e-02 -2.60969158e-02  6.61569014e-02
  -5.15010692e-02 -6.31843805e-02  8.48356336e-02 -3.96225564e-02]
 [ 8.77507776e-03  1.76758200e-01  1.82469085e-01  5.74808531e-02
   5.74176805e-03  2.28892453e-02 -1.30169243e-01 -2.90879399e-01
  -2.44823441e-01 -4.61391270e-01  3.01868737e-01 -1.90823555e-01
  -1.83854380e-03  1.49770537e-02  1.63209110e-01  1.25747323e-01
  -4.34289902e-01  1.42443255e-01 -3.83215249e-02  3.36146429e-02
  -7.82006681e-02 -3.73288125e-01 -8.79646540e-02  1.14639871e-01
  -3.11894834e-01 -7.48620108e-02  2.06411824e-01  8.15910846e-02
   7.24150380e-03 -2.47167498e-01 -1.58133388e-01 -1.40526101e-01
  -1.46778166e-01  1.95887357e-01 -8.09877459e-03  1.45828068e-01
  -3.40573370e-01  1.68010533e-01  1.35429472e-01  2.22828493e-01
  -3.08440894e-01 -4.34676185e-02 -2.12544262e-01  1.31634504e-01
   4.05105613e-02 -2.87312269e-01 -7.08628148e-02  1.62367344e-01
   2.06844602e-02 -2.61320978e-01  1.56167924e-01  3.39523613e-01
   2.34989926e-01 -2.01600585e-02  1.18062124e-02  3.01122606e-01
   2.35827610e-01 -4.82815415e-01 -6.73026443e-02 -1.49885908e-01
   4.58059728e-01 -3.22126508e-01 -7.59731280e-03 -1.76180869e-01
  -5.63377328e-02 -3.46811771e-01  5.52359372e-02 -3.89585078e-01
  -1.19357497e-01  3.66695017e-01 -4.52213585e-01 -1.33556768e-01
   2.36830134e-02  3.32835734e-01  1.61988318e-01  3.58481973e-01
  -4.03224647e-01 -2.60931313e-01 -2.34653085e-01  1.48969203e-01
  -3.54733884e-01 -1.69891670e-01 -9.31031406e-02 -2.43167937e-01
  -1.39040709e-01  1.42378315e-01 -1.83018267e-01 -2.63255030e-01
  -2.61941791e-01  4.47093435e-02 -7.17535019e-02 -1.11769997e-01
  -2.63894558e-01  6.13097548e-02  2.13264897e-01 -3.66782360e-02
   3.57737876e-02 -8.63070339e-02 -4.12310027e-02 -1.95239723e-01
  -3.13589126e-01 -2.72476703e-01  1.04923062e-01 -1.74837291e-01
   2.09219456e-02  3.63514549e-03  2.43988745e-02 -2.12662622e-01
  -6.86393306e-02 -1.36690393e-01  1.40184581e-01 -1.58062160e-01
   2.42271096e-01  1.14984132e-01 -5.96470013e-02 -1.64697766e-01
   7.47945383e-02  1.96575485e-02  1.91829592e-01 -7.36960918e-02]
 [-9.34629589e-02  3.51397581e-02  1.93142399e-01  3.10986806e-02
   8.83939117e-02  6.65093809e-02 -7.81119168e-02 -1.84119731e-01
  -2.06688583e-01 -2.94122130e-01  3.05881888e-01 -1.05210267e-01
  -1.40666991e-01 -2.29232684e-01  1.42894298e-01  8.34384412e-02
  -3.43097478e-01  1.66157842e-01 -1.28650833e-02  5.24654798e-02
  -1.48044154e-01 -2.95829952e-01 -1.01567306e-01 -4.17212360e-02
  -4.21094745e-01  3.15138549e-02  1.65134519e-01  2.10489213e-01
   1.07379131e-01 -1.56805068e-01 -1.78028688e-01  2.03687884e-02
  -1.09438367e-01  3.19974601e-01 -4.12944816e-02  8.10638741e-02
  -2.84294307e-01  1.52692556e-01  9.41160098e-02  5.95486499e-02
  -3.45534742e-01 -1.21306449e-01 -1.97141826e-01  1.51388898e-01
  -1.75570428e-01 -6.47569597e-02 -2.58529466e-02  2.80367464e-01
  -1.43135220e-01 -2.40429759e-01  7.23954588e-02  2.96258122e-01
   2.37281919e-01  5.13697565e-02  1.30163878e-01  1.06434658e-01
   2.39914060e-01 -3.00786436e-01  6.29698262e-02 -2.56241798e-01
   4.09412354e-01 -3.32264513e-01 -1.98060423e-02 -1.12548195e-01
  -6.82521984e-02 -1.87287793e-01  1.54460222e-01 -2.71568298e-01
  -1.30006433e-01  3.05841386e-01 -2.89136589e-01 -1.34278193e-01
  -4.46358323e-02  9.50783417e-02 -3.39937508e-02  2.65924752e-01
  -2.69169033e-01 -6.19376302e-02 -4.32232581e-02  7.16592371e-02
  -4.12154615e-01 -1.70961097e-01 -6.21198639e-02 -1.22428544e-01
   1.35059878e-02 -1.94938913e-01 -1.57316685e-01 -2.33980045e-01
  -2.53797054e-01  5.78907989e-02  4.99213636e-02 -1.72207996e-01
  -1.46359056e-01  1.02751657e-01  4.37650643e-02  6.05823249e-02
   1.14719495e-01 -8.69825110e-03 -3.28876764e-01 -1.02371536e-01
  -6.69853836e-02 -3.45810145e-01  1.50365725e-01  5.75601198e-02
  -9.44391042e-02  2.77690619e-01  2.06573810e-02 -2.19968081e-01
  -1.89923912e-01  1.35789439e-01  7.23599782e-03 -1.96922123e-01
  -1.78127095e-01 -3.09880581e-02 -1.50036097e-01 -4.27306220e-02
   1.35856494e-01  2.10922003e-01  8.26380104e-02 -1.78363308e-01]
 [ 9.53079313e-02  3.67849559e-01  4.79781963e-02  8.09621140e-02
  -1.21457450e-01  1.88939855e-01  1.93097666e-01 -3.68596643e-01
   3.34846452e-02 -4.78793561e-01  7.76813403e-02  7.72814825e-02
  -6.86757267e-02  2.15985373e-01  2.07054451e-01  1.22353397e-01
   5.88404313e-02  1.72842622e-01  2.42833287e-01  1.71418026e-01
   2.57568449e-01 -1.54415807e-02  2.89846212e-01  1.60141528e-01
  -1.47566482e-01  1.72684789e-02  7.96865582e-01  2.80923784e-01
   5.11012524e-02 -3.50094624e-02 -2.87441403e-01 -5.61674356e-01
  -1.20390184e-01 -4.81025018e-02  2.41287708e-01  7.93039575e-02
  -4.10964042e-02  2.10167512e-01  1.03947558e-01 -1.34537265e-01
  -2.10813895e-01 -4.71991062e-01 -3.80466431e-01  1.08984269e-01
  -2.29050085e-01 -6.12509966e-01  2.58860290e-01  6.75526634e-02
   1.04676194e-01 -3.32139045e-01  2.27940813e-01  1.22208007e-01
  -1.09078512e-01 -2.79395819e-01  2.03808114e-01  1.34990439e-01
   2.07521901e-01 -2.70498693e-01 -9.72095802e-02  3.21572088e-02
  -1.44179434e-01 -9.20872018e-02 -1.85159996e-01 -9.25401524e-02
  -2.12446883e-01 -5.94264828e-02 -4.14485753e-01 -2.29744643e-01
   3.11302394e-01 -2.76225537e-01  3.33556794e-02 -9.88530591e-02
  -1.11577250e-02  3.98576647e-01  3.24561745e-01 -2.04957146e-02
  -1.81777356e-03 -6.10851884e-01 -1.43462755e-02  2.16732845e-02
  -1.95020363e-01 -2.42706701e-01 -7.69568682e-02  7.64887594e-03
  -2.22643882e-01  2.97321409e-01  5.45847528e-02 -4.67712998e-01
   3.51019919e-01 -3.80405724e-01 -5.07499501e-02 -1.80711783e-02
  -3.23671043e-01  7.38195479e-02  1.09970151e-02  2.32502013e-01
   1.80183336e-01 -2.62732029e-01 -4.63636816e-02 -4.74604778e-02
  -6.19874895e-01 -1.50955886e-01  2.14232400e-01 -5.34192204e-01
  -2.22867712e-01 -2.78288007e-01  5.37057400e-01 -6.17170855e-02
  -1.51394844e-01 -3.70603539e-02 -5.18473387e-02 -4.94105294e-02
   4.19903338e-01 -7.35911801e-02  6.15336746e-02 -1.44157052e-01
   2.12520629e-01 -2.07410753e-03  1.81909531e-01 -1.01522662e-01]
 [-9.97617915e-02  1.83377326e-01  7.97524601e-02  5.08637391e-02
   1.26791701e-01 -8.72373674e-03  3.83045077e-02  9.48498547e-02
  -3.63456719e-02  1.07923798e-01  1.98461600e-02 -2.17699870e-01
  -1.18566394e-01 -1.03667073e-01  3.12052742e-02 -4.47919220e-03
   2.60641482e-02  1.31268933e-01  3.80355008e-02  2.52599455e-02
  -6.62615523e-02  3.23070511e-02  9.35706124e-02  2.45714597e-02
  -1.79141119e-01 -2.56681234e-01  1.49255872e-01 -3.28179263e-02
  -1.64548486e-01 -1.51334465e-01  1.00303560e-01  1.20505340e-01
  -6.16654344e-02  9.18584242e-02 -4.66277637e-02  4.62622456e-02
  -1.75604880e-01  9.16525796e-02 -1.27181590e-01  3.71738635e-02
  -2.31879219e-01  1.64545670e-01  8.79516825e-02 -7.11241066e-02
   1.13443904e-01  2.63354480e-01  2.79048309e-02  5.38936406e-02
  -9.53824818e-02 -1.23442762e-01  8.61962736e-02  2.31469393e-01
   1.82048623e-02 -1.24543600e-01  1.45123065e-01 -2.17902869e-01
  -1.19700812e-01 -6.07355610e-02 -5.86210638e-02 -8.44076201e-02
   1.03692278e-01  5.94042540e-02 -1.10202819e-01  8.77872333e-02
  -1.01581804e-01 -8.88204798e-02 -1.16577193e-01 -3.84375960e-01
  -1.01578064e-01 -1.09657776e-02 -2.69043416e-01  3.14562693e-02
  -3.04461494e-02  7.65928701e-02 -5.56549132e-02  1.41632870e-01
  -9.23241079e-02  2.05577374e-01  1.21321320e-03  5.24199335e-03
  -2.96490312e-01  2.40336172e-04 -1.06405281e-01 -1.41605079e-01
  -9.75235850e-02 -1.64368749e-01 -1.46064818e-01  2.02431470e-01
   4.74369079e-02 -1.08461671e-01  2.64600851e-02 -2.83298522e-01
   3.78527343e-02 -7.60765597e-02  2.58065592e-02  1.58060680e-03
   1.39116943e-01 -8.43802691e-02 -1.21282130e-01 -1.39537463e-02
   6.63188770e-02  2.71358620e-02  1.38971359e-01  2.91780919e-01
  -3.12446579e-02 -5.01227789e-02  4.89439443e-03 -8.99650678e-02
  -5.17546386e-02  7.61782229e-02  1.45561203e-01 -8.82316306e-02
  -1.37847915e-01 -4.40601213e-03 -1.79450616e-01 -1.88094929e-01
   5.24669699e-02  1.10547759e-01  2.36255512e-01 -4.58942093e-02]
 [ 4.68440466e-02  1.46645650e-01  2.20525056e-01  5.05556278e-02
   3.15915123e-02  1.06387764e-01  1.94657668e-01 -2.59924345e-02
  -3.59068178e-02 -1.94781646e-01  2.39930898e-01 -1.22507930e-01
  -2.23063737e-01 -9.93934870e-02 -5.53840846e-02 -8.38067755e-02
   2.68567652e-01  1.22482158e-01  1.44825682e-01  2.17578694e-01
   4.02159318e-02  5.56987571e-03  1.97149605e-01 -1.26220539e-01
  -2.15834707e-01 -1.28543943e-01  3.53613645e-01  2.35032916e-01
   1.75521690e-02 -1.05287559e-01 -1.07227728e-01  3.16538406e-03
  -1.93055540e-01  2.90759027e-01  1.69817999e-01  5.67338094e-02
   1.88889802e-02  7.94863179e-02 -7.28470311e-02 -8.95377323e-02
  -7.42424950e-02 -8.88294354e-03 -1.99238941e-01  1.23849899e-01
  -1.48201376e-01 -1.23445250e-01  1.39453977e-01  9.42970812e-02
  -9.45813730e-02 -1.13496155e-01 -7.99318552e-02  1.13846526e-01
   2.08143458e-01 -1.75460875e-01  2.01401979e-01 -7.84830153e-02
   1.14173643e-01  5.70437051e-02  4.36147721e-03 -2.61593521e-01
   3.83441374e-02 -1.84708506e-01 -8.03912580e-02  3.77613977e-02
   1.67732567e-01 -2.28894372e-02 -8.49774405e-02 -1.26480073e-01
  -7.12311715e-02 -2.30231285e-01  6.93789721e-02 -1.61988541e-01
  -6.27848227e-03 -7.88142346e-03  2.39697676e-02  7.06882626e-02
  -3.13809305e-01  6.59034327e-02  1.29486173e-01 -2.44333655e-01
  -5.62174097e-02 -2.62171552e-02  1.37195690e-02  1.06069818e-01
  -7.16779614e-03  6.54148087e-02 -1.88654900e-01 -1.83094501e-01
   9.51733291e-02 -5.53293899e-02 -2.35798910e-01  1.36049464e-03
  -2.21606463e-01  1.57728001e-01 -3.75783443e-02  3.64522785e-02
   1.76149219e-01 -1.18889391e-01  7.64793390e-03 -1.14169521e-02
   2.28851333e-01 -4.46411997e-01  4.97012697e-02  9.74642709e-02
  -1.04466394e-01  1.03080727e-01  1.16418958e-01 -8.13366100e-02
  -1.91618338e-01  1.12989135e-01 -5.58987893e-02 -3.40595543e-01
  -2.19932780e-01 -6.01989105e-02 -1.01285733e-01 -1.63178146e-01
  -6.88126171e-03  1.00319935e-02  1.18151024e-01 -1.98659092e-01]
 [ 1.15053453e-01  8.35114196e-02  5.05283363e-02  1.34097382e-01
   3.54593657e-02 -6.05094619e-02  1.97440833e-01 -1.80761755e-01
   1.45484373e-01 -2.58118540e-01  1.90220952e-01 -1.23529330e-01
  -6.54207394e-02 -3.34249586e-01 -1.06600390e-04 -7.93790519e-02
  -1.32151768e-01 -1.85800970e-01  8.45803618e-02  1.52926549e-01
  -6.12464584e-02  4.50756066e-02  1.89054340e-01 -1.82370692e-01
  -1.03879437e-01 -1.35592774e-01  3.28327805e-01  1.60156325e-01
   8.33888873e-02 -2.79615760e-01 -3.46631616e-01  1.03429943e-01
  -1.48418732e-02  1.98922321e-01  2.61456102e-01  2.18385868e-02
  -2.69547611e-01  7.60977417e-02 -2.04750653e-02 -1.22262985e-01
  -3.07640105e-01 -3.56094033e-01 -1.43902317e-01  3.48995030e-02
  -2.10763514e-01 -1.24722727e-01  1.25377551e-01  4.19653028e-01
  -2.65381962e-01 -5.26699781e-01  1.95598066e-01  1.60684824e-01
   3.74066681e-01  2.10026503e-02  2.95911491e-01 -1.04054160e-01
   1.62807807e-01 -1.38555527e-01 -3.59022431e-02 -3.40182960e-01
   2.80953407e-01 -2.05725268e-01  2.89960876e-02  3.19515675e-01
  -1.13776341e-01  4.32563499e-02 -1.92213520e-01  9.70039815e-02
  -1.23480320e-01 -2.44728266e-03  1.92510828e-01 -3.58771463e-03
   1.51220053e-01  2.36396581e-01  4.72882129e-02 -1.64313167e-02
  -3.59309524e-01 -3.99301976e-01  1.05331145e-01 -3.06805164e-01
  -1.87475845e-01 -3.69980097e-01  1.57645233e-02  9.34761167e-02
  -1.99356243e-01 -5.60277281e-03  1.53025419e-01 -3.19106996e-01
   2.36445859e-01 -2.20995992e-01  1.14271315e-02 -6.65505901e-02
  -7.03991428e-02 -7.74221644e-02  4.14721332e-02  4.33086278e-03
   9.67791304e-02 -2.38893703e-02 -4.32577997e-01 -1.48034573e-01
  -9.32640284e-02 -9.41602979e-03  1.76508591e-01 -1.78992078e-01
  -1.43493727e-01 -1.49721533e-01  1.28772661e-01 -2.01243058e-01
  -9.27489549e-02  2.56361403e-02  9.45443809e-02 -5.46063446e-02
  -2.57061541e-01  6.73749372e-02 -8.40095058e-02 -6.09670021e-02
   2.45690793e-01  2.38878012e-01  2.55985826e-01 -5.75235784e-01]
 [ 7.32932612e-02  3.59888166e-01  1.83133021e-01  1.87141031e-01
  -4.26170370e-03  3.09838742e-01 -2.44828891e-02 -3.71695966e-01
  -1.39973965e-02 -2.93471456e-01  1.88400909e-01 -5.40352613e-02
   2.08299130e-01  1.56608209e-01  1.76792085e-01  1.75340369e-01
   7.92933907e-03  3.08787584e-01 -1.53696621e-02  1.61783203e-01
   1.57691136e-01  3.65299843e-02 -9.25662220e-02  2.66414613e-01
  -7.18327686e-02  6.54636882e-03  2.25627735e-01  1.64727882e-01
  -8.71092826e-02 -1.83033839e-01 -3.47859003e-02 -3.85293156e-01
  -1.22035041e-01 -6.80696592e-02  4.58919890e-02  1.93032712e-01
  -1.85299620e-01  2.00132445e-01  5.89227071e-03 -6.42997995e-02
  -9.17177945e-02 -1.38796687e-01 -3.93195331e-01 -1.38185114e-01
   9.74593125e-03 -3.26875687e-01  7.30941966e-02 -1.56996563e-01
  -1.46075949e-01  2.98686530e-02  2.81335842e-02 -5.36917895e-02
  -1.83649823e-01 -2.54014045e-01  5.57042584e-02  9.95535851e-02
   9.96941142e-03 -3.53202164e-01 -2.74324536e-01  8.72596651e-02
   1.00130193e-01  9.03797001e-02 -2.88518425e-02 -1.69053927e-01
  -1.97145030e-01 -5.92210144e-02 -2.78807878e-01 -4.75299329e-01
   3.09818201e-02 -4.89684977e-02 -1.58143878e-01 -1.54342994e-01
   9.14009213e-02  2.14224011e-01  4.17568207e-01 -1.45736719e-02
  -4.20557976e-01 -4.70050603e-01  7.08402321e-02  2.67281622e-01
  -1.87512293e-01 -3.99244338e-01 -1.41884714e-01  1.24809854e-01
  -5.36789633e-02  5.49250282e-02  5.10452641e-03 -2.59790957e-01
   1.79569721e-01 -2.79421359e-01  2.63752282e-01  4.39749956e-02
  -9.96924564e-02  2.88289897e-02  2.19008639e-01  2.17878804e-01
   2.40808085e-01 -2.02425495e-01  1.31676719e-01  2.27598935e-01
  -4.25415158e-01 -4.88486961e-02  1.55233160e-01 -2.52041459e-01
  -3.36333305e-01 -1.84048563e-01  3.25174153e-01 -5.49946316e-02
  -1.46835566e-01  9.74266976e-03  1.92687705e-01  2.42943466e-01
   4.31314498e-01  1.23059094e-01  9.00116842e-03 -2.10177958e-01
   2.49388903e-01 -6.53020591e-02  5.71788661e-02 -8.35196227e-02]
 [ 9.10158381e-02  2.07336202e-01  1.41953275e-01 -4.04307544e-02
  -2.45884165e-01  8.55415016e-02 -7.71066770e-02 -1.89529151e-01
  -9.55109820e-02 -2.19174698e-01  9.70061123e-03  7.17116743e-02
  -3.74177732e-02  7.34064877e-02  8.57625976e-02 -2.10458823e-02
  -8.65785703e-02  7.37554505e-02  1.68927997e-01  3.09148114e-02
   1.43499866e-01 -1.65556416e-01  8.87427628e-02  1.48688480e-01
  -1.95134729e-01 -2.21863240e-01  1.58024162e-01  1.31781742e-01
  -1.65191621e-01 -4.06276509e-02  1.36365950e-01 -3.25520396e-01
  -1.25104308e-01 -5.80204763e-02  2.76217721e-02  1.63674474e-01
  -1.11327305e-01  1.34341851e-01 -2.68595730e-04  1.39972970e-01
  -1.21089853e-01  6.89736158e-02 -4.08446580e-01  2.42283214e-02
   8.97824392e-02 -2.73738116e-01 -1.95934419e-02  5.00647388e-02
   5.08752428e-02 -9.59462896e-02 -1.05659328e-01  1.26201198e-01
   3.64678986e-02 -4.75642830e-02  1.09035447e-02  1.50456563e-01
   1.13168135e-01 -8.11253637e-02 -8.03127289e-02 -4.14752103e-02
  -9.13129002e-02  8.81532580e-03  1.13258522e-03 -2.78611690e-01
  -1.95464324e-02  8.18866566e-02 -1.60915069e-02 -2.98926234e-01
   4.10038047e-02 -1.37270600e-01 -5.27116992e-02 -8.62794891e-02
   1.60531953e-01  2.03088745e-01  1.99842229e-01  1.11444928e-01
  -1.07041202e-01 -2.57321477e-01 -1.14233039e-01  1.12917341e-01
  -1.30456865e-01 -3.49239439e-01  1.19109787e-01 -1.55385867e-01
   3.76038365e-02  3.18820864e-01  5.40653840e-02 -3.25969249e-01
   5.63212745e-02 -7.78130442e-02 -1.43782333e-01 -5.29430099e-02
  -1.72951907e-01  5.47570102e-02  1.22713864e-01 -5.71358427e-02
   4.78948578e-02  2.10230515e-04  7.17591941e-02  1.85075060e-01
  -3.28734070e-01 -1.28694013e-01  4.66887280e-02 -3.82373631e-01
  -1.81682706e-02 -1.46128833e-01  1.11471802e-01  2.26223897e-02
  -2.33710855e-02 -4.25906554e-02  1.39851138e-01  8.01435336e-02
   2.42265970e-01  5.06930277e-02 -3.73495445e-02 -1.31675437e-01
   9.96411666e-02 -1.75757617e-01  2.73955464e-01  7.83048198e-02]
 [ 1.66420504e-01  1.20763406e-01  2.07446530e-01 -7.59691894e-02
  -8.43304843e-02  1.97490364e-01  2.42972761e-01 -2.55566891e-02
   1.28746495e-01  2.25356501e-02  4.64786291e-02 -1.45325825e-01
   2.05492564e-02 -6.06568577e-03  1.06535651e-01 -5.60568236e-02
   3.22724134e-01  2.85903085e-02  1.95721593e-02  3.41057569e-01
   1.61670595e-02 -1.84694231e-01  1.46063313e-01 -3.16722356e-02
  -2.15567872e-01  4.19953205e-02  3.20131838e-01  3.29124600e-01
  -4.14407393e-03 -3.31811249e-01  7.90550709e-02 -3.90723906e-02
  -1.37670070e-01  1.96482912e-01  1.61967322e-01  3.87377851e-02
  -8.10205122e-04  1.39872655e-01 -1.00099571e-01 -3.03933352e-01
  -1.02367237e-01 -1.21477796e-02 -2.14578002e-03  1.38472483e-01
  -3.26171815e-02 -1.16409466e-03  7.20055923e-02  1.62503883e-01
  -1.76801831e-01 -1.04849473e-01  1.64363887e-02  7.77278170e-02
   1.19691692e-01 -1.06748931e-01  7.08187222e-02  1.31784201e-01
   2.48078942e-01  2.60540634e-01  4.77356417e-03 -2.76549637e-01
  -8.20651278e-02 -2.60579199e-01  2.37351209e-02 -3.10489698e-03
  -5.59257008e-02 -3.49932611e-02 -1.93440720e-01 -2.40717068e-01
  -1.83818772e-01 -2.63973564e-01  8.51267800e-02 -1.08087789e-02
   8.79908577e-02  2.97609111e-03 -1.34870876e-02 -1.13473639e-01
   4.08126712e-02  2.57824324e-02  1.47703603e-01 -2.14376390e-01
  -9.58556011e-02 -1.13989949e-01  7.54483938e-02  1.34988815e-01
  -1.83781207e-01  6.41385317e-02 -5.06419018e-02 -1.04199452e-02
   2.98032910e-01  9.02707048e-04 -2.79305369e-01 -4.29804213e-02
  -1.61313172e-02  1.71310663e-01  3.26711452e-03  1.99096754e-01
   1.37333095e-01 -3.14480335e-01  1.71718840e-02  7.04809725e-02
   1.48594856e-01 -3.76757860e-01  2.30136782e-01  1.92691818e-01
  -5.63982911e-02 -6.75073639e-02  1.84967026e-01 -6.34776801e-02
  -1.30830720e-01  2.80533612e-01  1.26047418e-01 -1.41808644e-01
  -1.46461979e-01  1.93890736e-01  9.33523476e-02 -1.93549708e-01
   1.61630195e-02 -8.79288837e-03  1.71586037e-01  3.72546874e-02]
 [ 5.23326360e-02  1.59691572e-01  1.63980424e-01 -1.41333174e-02
  -2.20858440e-01  3.33844647e-02 -1.55776203e-01 -1.31460592e-01
  -2.06854925e-01 -2.07789987e-01  1.66465834e-01 -1.72771990e-01
   8.82109404e-02 -7.65559450e-03 -8.94549303e-03  5.31289354e-02
   2.20011678e-02  2.76434980e-02  3.92974634e-03 -1.18595455e-02
   6.08298704e-02 -1.34342149e-01 -1.12140439e-01  2.18490750e-01
  -1.76383108e-01 -9.10804421e-02  6.26629815e-02  8.35405588e-02
  -5.27564585e-02 -2.54463434e-01  3.67102213e-02 -1.93654001e-01
  -8.08212459e-02  1.72763810e-01  1.10137947e-01  2.03447089e-01
  -3.31917942e-01  1.08757466e-01  2.42431834e-02  7.06088394e-02
  -1.81780115e-01 -6.47360161e-02 -2.96051979e-01 -2.74381507e-03
  -6.24502264e-03 -2.87655801e-01 -1.45087719e-01 -6.18331553e-03
   7.96265304e-02 -1.81478903e-01 -4.03234065e-02  3.07165772e-01
   3.39971646e-03 -8.64233151e-02  8.37609265e-03  1.34026721e-01
   4.19759899e-02 -1.83521450e-01  2.54145097e-02 -2.19393820e-01
   2.05216721e-01 -1.02335336e-02 -6.78175781e-03 -2.03556389e-01
  -1.03890210e-01 -9.13620591e-02 -6.31106943e-02 -2.00661048e-01
  -3.01525835e-02 -3.84626873e-02 -1.12107567e-01 -1.04328893e-01
   3.90098654e-02  2.96069801e-01  1.53872147e-01  2.67545372e-01
  -2.63451606e-01 -1.40158713e-01 -2.28648931e-01  6.35194108e-02
  -2.68084198e-01 -1.70285434e-01  9.25837159e-02 -2.00465694e-01
  -1.74657717e-01  1.38686448e-01 -1.21235726e-02 -1.11004315e-01
   1.90758165e-02 -1.45098433e-01 -3.84623408e-02 -1.35552526e-01
  -2.72535354e-01  1.16602018e-01  9.68029946e-02 -5.30892015e-02
   1.32572219e-01 -1.11583620e-01  8.84867534e-02  1.18240103e-01
  -3.47818106e-01 -2.71134734e-01  1.62643537e-01 -2.20107585e-01
   3.66979651e-02 -1.76675886e-01  3.18359695e-02  2.18367018e-02
  -4.53073643e-02 -7.28922486e-02  6.89680427e-02  8.02165642e-02
   2.58056313e-01 -4.16052788e-02 -1.25222668e-01 -1.22671857e-01
   5.68300970e-02  4.35870104e-02  2.18403593e-01 -7.21043069e-03]
 [ 2.65366901e-02  1.47956535e-01  1.05511926e-01 -5.20248935e-02
   8.50000158e-02  5.76424673e-02  1.18754409e-01  3.45224649e-01
   2.04573851e-02  3.34397316e-01  1.02679901e-01 -2.11469173e-01
  -5.37397750e-02  5.98093681e-03 -2.26891130e-01 -1.37351931e-03
   1.75341681e-01  4.50145453e-02  4.81335185e-02  8.26030821e-02
  -1.38884842e-01  2.07266822e-01  1.93442106e-01 -1.53572336e-01
  -1.21755213e-01 -2.26232529e-01  1.94505528e-01  1.36676654e-01
  -2.93694139e-01  5.36716059e-02  2.83793151e-01  1.72050253e-01
  -3.47627431e-01  1.04513451e-01 -1.16042577e-01  3.82206775e-02
  -5.46261333e-02  1.44638298e-02 -5.26380986e-02 -1.55798584e-01
  -1.67790473e-01  2.46266872e-01  7.17595592e-02 -1.58247843e-01
   8.56464431e-02  3.45112443e-01  1.15291119e-01  3.00807446e-01
  -3.77837382e-02 -1.62345637e-02 -2.72077829e-01  1.55208588e-01
   1.70185848e-03 -5.76647893e-02  1.15677185e-01 -1.59039631e-01
  -2.66014010e-01  2.16949340e-02 -1.54106155e-01 -2.01334104e-01
   1.37695178e-01  1.55380443e-01  8.62812176e-02  1.09485060e-01
  -2.01582238e-02  7.70150051e-02  4.20039408e-02 -4.36755359e-01
  -1.21772520e-01 -1.53148383e-01 -1.01195760e-01  5.11542931e-02
   1.14756711e-01 -2.07674697e-01 -2.23153844e-01  8.92716795e-02
   3.23810913e-02  3.59383017e-01  2.72383746e-02 -1.35330051e-01
  -6.14284314e-02  1.54291674e-01  5.88647872e-02 -5.39739132e-02
   1.91708691e-02 -2.85031110e-01 -9.40330923e-02  1.83314636e-01
   1.12773523e-01  6.98037399e-03  1.04021385e-01 -2.07184643e-01
   1.78519562e-01 -9.02485922e-02  3.95037197e-02 -2.09750161e-01
   1.67856708e-01 -1.34750530e-01 -1.58680081e-01  2.39572719e-01
   1.94174007e-01  4.59845401e-02 -2.73073222e-02  4.54351485e-01
   7.06393123e-02  1.26265809e-01  5.56882508e-02  3.36859636e-02
   7.05698133e-02  1.71893224e-01 -4.94916327e-02 -6.94150031e-02
  -6.73339888e-02  4.61395904e-02 -2.13743746e-01 -1.55904695e-01
  -6.73735365e-02  1.52097523e-01  1.80981427e-01 -1.23395145e-01]
 [-1.33588463e-01  1.95653707e-01  2.84847438e-01  1.95903838e-01
   1.09400488e-02  3.43925059e-02  9.56456363e-02  4.11697999e-02
  -1.11650586e-01 -2.16790915e-01  2.51950175e-01 -2.30048940e-01
  -5.85730299e-02 -1.13523982e-01  2.20147781e-02  1.22409435e-02
  -1.67817920e-01  1.02406759e-02 -2.90022269e-02  1.31583467e-01
  -3.14230695e-02 -2.67165929e-01 -1.60627607e-02  2.03433573e-01
  -2.96572000e-01 -5.31683005e-02  8.42107907e-02  4.27410239e-03
  -1.17759304e-02 -3.17050040e-01 -3.94462720e-02  6.30350932e-02
  -2.39736900e-01  2.90158302e-01  5.91903776e-02  5.20057343e-02
  -2.95625627e-01  2.02681452e-01  1.15689645e-02  1.00743592e-01
  -2.34922439e-01  2.50699352e-02  3.39558139e-03 -5.40054915e-03
  -3.06999646e-02  4.22432385e-02  1.95789963e-01  1.03146933e-01
  -1.65709794e-01 -1.10191166e-01 -9.71596241e-02  3.18711519e-01
   2.14847416e-01  8.17604661e-02  7.97197297e-02  5.18150395e-03
  -2.34054867e-02 -1.88295111e-01 -6.10460229e-02 -2.62048334e-01
   4.12558764e-01 -5.49333617e-02  6.15409389e-03 -1.62791647e-02
  -1.66892767e-01 -2.09382772e-01  3.91081534e-02 -4.36372101e-01
  -1.47640079e-01  1.31404147e-01 -2.89507121e-01  9.87147260e-03
  -9.28936824e-02  2.36693323e-01 -3.09207570e-03  9.75615829e-02
  -1.48706228e-01 -1.99316338e-01 -5.07076532e-02  5.49331531e-02
  -3.58646601e-01 -3.29449996e-02 -1.26110405e-01 -2.52596676e-01
   1.80712305e-02 -1.88278973e-01  3.71299721e-02 -5.44028357e-02
  -1.53976038e-01 -3.42110544e-02  1.04816735e-01 -1.32663459e-01
  -4.83639501e-02 -3.90260853e-02  4.36743386e-02  6.89862818e-02
   1.13176942e-01 -1.26424804e-01 -1.30426407e-01  1.21753059e-01
  -1.18769454e-02 -1.32443666e-01  2.04832181e-01 -3.33639458e-02
   4.61519230e-03 -7.67512433e-03  3.26788351e-02 -1.58504665e-01
  -4.19471748e-02  2.66162883e-02 -1.74136553e-02 -7.55787939e-02
   1.54687777e-01  2.20018458e-02 -1.40486464e-01 -2.01008290e-01
   8.84474069e-02 -8.21040012e-03  1.05203576e-01 -6.85789511e-02]
 [-6.89579546e-02  7.78538957e-02  1.46485507e-01  1.15456795e-02
   8.69935602e-02  8.99448097e-02  1.02634564e-01 -1.56727627e-01
   1.33406654e-01 -2.37116233e-01  2.90654272e-01 -1.83480084e-01
  -1.59814134e-01 -8.16738904e-02 -1.47334486e-01 -1.43967867e-01
   1.44492209e-01  2.23507416e-02  1.59604549e-02  2.09002718e-01
  -6.15969151e-02  3.80563214e-02  1.51949048e-01 -4.90904413e-02
  -4.37764451e-02  5.78377843e-02  2.05860525e-01  1.50133908e-01
  -8.91177207e-02 -1.84163585e-01 -7.14126416e-03  1.95115730e-01
  -2.73460627e-01  4.06794518e-01  5.96184395e-02 -6.70981333e-02
  -2.04800949e-01  1.01238407e-01  4.97654304e-02 -9.79724526e-02
  -1.00994788e-01  1.03081658e-01 -3.34442481e-02  1.73195034e-01
  -7.83857107e-02 -4.52790083e-03  4.93145734e-02  3.57975453e-01
  -1.24986142e-01  1.58871002e-02 -8.33281130e-02  2.03534126e-01
   1.45617336e-01 -6.65534660e-02  1.33434802e-01 -1.19234724e-02
